{"learner":{"attributes":{"scikit_learn":"{\"_estimator_type\": \"regressor\"}"},"feature_names":["days_to_flight","depart_weekday","is_weekend","day_of_month","week_of_month","is_bayram","days_to_bayram","bayram_proximity","flight_count","airline_count","route_global_avg","route_global_std","temp_max","temp_min","precipitation","wind_speed","is_bad_weather","route_ADB_IST","route_AYT_IST","route_ESB_SAW","route_IST_ADB","route_IST_AYT","route_SAW_ESB","bayram_period_Bayram","bayram_period_Bayram Oncesi","bayram_period_Bayram Sonrasi","bayram_period_Normal","weather_condition_Acik","weather_condition_Ciseleme","weather_condition_Firtinali","weather_condition_Karli","weather_condition_Sisli","weather_condition_Yagmurlu"],"feature_types":["int","int","int","int","int","int","int","float","int","int","float","float","float","float","float","float","int","int","int","int","int","int","int","int","int","int","int","int","int","int","int","int","int"],"gradient_booster":{"model":{"cats":{"enc":[],"feature_segments":[],"sorted_idx":[]},"gbtree_model_param":{"num_parallel_tree":"1","num_trees":"461"},"iteration_indptr":[0,1,2,3,4,5,6,7,8,9,10,11,12,13,14,15,16,17,18,19,20,21,22,23,24,25,26,27,28,29,30,31,32,33,34,35,36,37,38,39,40,41,42,43,44,45,46,47,48,49,50,51,52,53,54,55,56,57,58,59,60,61,62,63,64,65,66,67,68,69,70,71,72,73,74,75,76,77,78,79,80,81,82,83,84,85,86,87,88,89,90,91,92,93,94,95,96,97,98,99,100,101,102,103,104,105,106,107,108,109,110,111,112,113,114,115,116,117,118,119,120,121,122,123,124,125,126,127,128,129,130,131,132,133,134,135,136,137,138,139,140,141,142,143,144,145,146,147,148,149,150,151,152,153,154,155,156,157,158,159,160,161,162,163,164,165,166,167,168,169,170,171,172,173,174,175,176,177,178,179,180,181,182,183,184,185,186,187,188,189,190,191,192,193,194,195,196,197,198,199,200,201,202,203,204,205,206,207,208,209,210,211,212,213,214,215,216,217,218,219,220,221,222,223,224,225,226,227,228,229,230,231,232,233,234,235,236,237,238,239,240,241,242,243,244,245,246,247,248,249,250,251,252,253,254,255,256,257,258,259,260,261,262,263,264,265,266,267,268,269,270,271,272,273,274,275,276,277,278,279,280,281,282,283,284,285,286,287,288,289,290,291,292,293,294,295,296,297,298,299,300,301,302,303,304,305,306,307,308,309,310,311,312,313,314,315,316,317,318,319,320,321,322,323,324,325,326,327,328,329,330,331,332,333,334,335,336,337,338,339,340,341,342,343,344,345,346,347,348,349,350,351,352,353,354,355,356,357,358,359,360,361,362,363,364,365,366,367,368,369,370,371,372,373,374,375,376,377,378,379,380,381,382,383,384,385,386,387,388,389,390,391,392,393,394,395,396,397,398,399,400,401,402,403,404,405,406,407,408,409,410,411,412,413,414,415,416,417,418,419,420,421,422,423,424,425,426,427,428,429,430,431,432,433,434,435,436,437,438,439,440,441,442,443,444,445,446,447,448,449,450,451,452,453,454,455,456,457,458,459,460,461],"tree_info":[0,0,0,0,0,0,0,0,0,0,0,0,0,0,0,0,0,0,0,0,0,0,0,0,0,0,0,0,0,0,0,0,0,0,0,0,0,0,0,0,0,0,0,0,0,0,0,0,0,0,0,0,0,0,0,0,0,0,0,0,0,0,0,0,0,0,0,0,0,0,0,0,0,0,0,0,0,0,0,0,0,0,0,0,0,0,0,0,0,0,0,0,0,0,0,0,0,0,0,0,0,0,0,0,0,0,0,0,0,0,0,0,0,0,0,0,0,0,0,0,0,0,0,0,0,0,0,0,0,0,0,0,0,0,0,0,0,0,0,0,0,0,0,0,0,0,0,0,0,0,0,0,0,0,0,0,0,0,0,0,0,0,0,0,0,0,0,0,0,0,0,0,0,0,0,0,0,0,0,0,0,0,0,0,0,0,0,0,0,0,0,0,0,0,0,0,0,0,0,0,0,0,0,0,0,0,0,0,0,0,0,0,0,0,0,0,0,0,0,0,0,0,0,0,0,0,0,0,0,0,0,0,0,0,0,0,0,0,0,0,0,0,0,0,0,0,0,0,0,0,0,0,0,0,0,0,0,0,0,0,0,0,0,0,0,0,0,0,0,0,0,0,0,0,0,0,0,0,0,0,0,0,0,0,0,0,0,0,0,0,0,0,0,0,0,0,0,0,0,0,0,0,0,0,0,0,0,0,0,0,0,0,0,0,0,0,0,0,0,0,0,0,0,0,0,0,0,0,0,0,0,0,0,0,0,0,0,0,0,0,0,0,0,0,0,0,0,0,0,0,0,0,0,0,0,0,0,0,0,0,0,0,0,0,0,0,0,0,0,0,0,0,0,0,0,0,0,0,0,0,0,0,0,0,0,0,0,0,0,0,0,0,0,0,0,0,0,0,0,0,0,0,0,0,0,0,0,0,0,0,0,0,0,0,0,0,0,0,0,0,0,0,0,0,0,0,0,0,0,0,0,0,0,0,0,0,0,0,0,0,0,0,0,0,0,0,0,0,0,0,0,0,0,0,0,0,0,0,0,0,0],"trees":[{"base_weights":[9.623123E1,-8.71494E2,6.529887E2,-1.12372696E2,-3.6107053E2,2.0606767E2,1.1134201E2,8.405718E0,-4.363866E2,-7.847271E1,4.912929E2,-5.106118E1,-1.7305515E1,-1.8589986E2,2.4504555E1,8.306293E1,5.648137E1,-2.0413328E1,1.5664606E1,-2.538568E2,7.477017E1,-1.0645848E2,2.496872E1,3.3062716E0,-3.046734E2,1.3736052E1,-5.15267E0,-1.891711E1,5.4805336E0,-3.4633282E2,-1.0404775E0,-3.5655907E1,-1.1394225E0],"categories":[],"categories_nodes":[],"categories_segments":[],"categories_sizes":[],"default_left":[0,0,0,0,0,0,0,0,0,0,0,0,0,0,0,0,0,0,0,0,0,0,0,0,0,0,0,0,0,0,0,0,0],"id":0,"left_children":[1,3,5,-1,7,9,-1,-1,11,13,15,-1,17,19,-1,21,-1,-1,-1,23,25,27,-1,-1,29,-1,-1,-1,-1,31,-1,-1,-1],"loss_changes":[9.463065E7,7.120504E6,2.4837468E7,0E0,1.725586E6,6.256978E6,0E0,0E0,1.6303375E6,2.113573E6,1.343335E6,0E0,1.0232216E6,8.822064E5,0E0,9.671186E5,0E0,0E0,0E0,5.98245E5,2.2875684E5,3.848906E5,0E0,0E0,3.233405E5,0E0,0E0,0E0,0E0,2.8789975E5,0E0,0E0,0E0],"parents":[2147483647,0,0,1,1,2,2,4,4,5,5,8,8,9,9,10,10,12,12,13,13,15,15,19,19,20,20,21,21,24,24,29,29],"right_children":[2,4,6,-1,8,10,-1,-1,12,14,16,-1,18,20,-1,22,-1,-1,-1,24,26,28,-1,-1,30,-1,-1,-1,-1,32,-1,-1,-1],"split_conditions":[2.2E1,2E1,4.2437285E-1,-1.12372696E2,2.3E1,4.037578E3,1.1134201E2,8.405718E0,5E0,6E0,1.5E1,-5.106118E1,2.7E1,4E1,2.4504555E1,4E0,5.648137E1,-2.0413328E1,1.5664606E1,5E0,2E1,4.2E1,2.496872E1,3.3062716E0,3.1E1,1.3736052E1,-5.15267E0,-1.891711E1,5.4805336E0,2.7645305E-1,-1.0404775E0,-3.5655907E1,-1.1394225E0],"split_indices":[8,0,7,0,0,10,0,0,1,1,0,0,0,8,0,1,0,0,0,0,0,8,0,0,0,0,0,0,0,7,0,0,0],"split_type":[0,0,0,0,0,0,0,0,0,0,0,0,0,0,0,0,0,0,0,0,0,0,0,0,0,0,0,0,0,0,0,0,0],"sum_hessian":[1.56E2,5.5E1,1.01E2,2.5E1,3E1,6.3E1,3.8E1,4E0,2.6E1,3.5E1,2.8E1,1.8E1,8E0,3E1,5E0,1E1,1.8E1,3E0,5E0,2.4E1,6E0,7E0,3E0,4E0,2E1,3E0,3E0,3E0,4E0,1.6E1,4E0,1.3E1,3E0],"tree_param":{"num_deleted":"0","num_feature":"33","num_nodes":"33","size_leaf_vector":"1"}},{"base_weights":[-1.3650185E2,-9.945259E2,3.332162E2,-9.985777E1,-1.8825058E1,-7.190029E1,1.0595243E3,-2.3739044E2,1.8929712E2,1.0182845E2,1.1976963E1,1.7345634E1,-3.0787164E2,-5.3580494E1,3.6286078E2,-4.3835376E2,7.98841E1,-1.1102484E2,5.0592747E0,4.009354E0,3.6132526E1,2.7066724E0,-4.4929886E1,-6.4073235E1,2.0401472E1,-4.952054E-1,-1.26199875E1,-1.1978001E1,5.58495E0],"categories":[],"categories_nodes":[],"categories_segments":[],"categories_sizes":[],"default_left":[0,0,0,0,0,0,0,0,0,0,0,0,0,0,0,0,0,0,0,0,0,0,0,0,0,0,0,0,0],"id":1,"left_children":[1,3,5,-1,-1,7,9,11,13,-1,-1,-1,15,17,19,21,23,25,-1,-1,-1,-1,-1,27,-1,-1,-1,-1,-1],"loss_changes":[6.827543E7,1.90416E6,3.3551784E7,0E0,0E0,3.911064E6,1.949E5,2.1552958E6,1.7270104E6,0E0,0E0,0E0,2.842083E6,2.0457461E5,3.751225E4,9.90596E5,5.514068E5,4.2561875E4,0E0,0E0,0E0,0E0,0E0,2.17678E5,0E0,0E0,0E0,0E0,0E0],"parents":[2147483647,0,0,1,1,2,2,5,5,6,6,7,7,8,8,12,12,13,13,14,14,15,15,16,16,17,17,23,23],"right_children":[2,4,6,-1,-1,8,10,12,14,-1,-1,-1,16,18,20,22,24,26,-1,-1,-1,-1,-1,28,-1,-1,-1,-1,-1],"split_conditions":[2.2E1,2.9E1,3E0,-9.985777E1,-1.8825058E1,2.5E1,4.9E1,1.51E1,4E1,1.0182845E2,1.1976963E1,1.7345634E1,4.4E1,5E0,4.1E1,5E0,1.3E1,1E0,5.0592747E0,4.009354E0,3.6132526E1,2.7066724E0,-4.4929886E1,2.6E1,2.0401472E1,-4.952054E-1,-1.26199875E1,-1.1978001E1,5.58495E0],"split_indices":[8,0,4,0,0,0,8,12,8,0,0,0,8,1,8,0,0,17,0,0,0,0,0,12,0,0,0,0,0],"split_type":[0,0,0,0,0,0,0,0,0,0,0,0,0,0,0,0,0,0,0,0,0,0,0,0,0,0,0,0,0],"sum_hessian":[1.52E2,5E1,1.02E2,4.2E1,8E0,7.1E1,3.1E1,4.4E1,2.7E1,2.8E1,3E0,4E0,4E1,1.4E1,1.3E1,2.9E1,1.1E1,9E0,5E0,3E0,1E1,3E0,2.6E1,8E0,3E0,4E0,5E0,5E0,3E0],"tree_param":{"num_deleted":"0","num_feature":"33","num_nodes":"29","size_leaf_vector":"1"}},{"base_weights":[-2.6087543E1,-7.6105225E2,3.847717E2,-7.68787E1,-7.7092886E-1,4.785333E1,1.1219916E2,-1.179727E2,2.7069873E2,1.9827924E2,-2.6253882E2,4.009399E1,-9.911199E1,-4.883315E1,3.1415888E1,-3.1344528E0,-3.2344556E2,2.1149871E0,-1.4445267E1,1.0635953E1,-1.7454063E1,5.673974E0,-6.062335E0,-3.989269E2,3.4068313E0,-7.3689423E0,-4.162994E1],"categories":[],"categories_nodes":[],"categories_segments":[],"categories_sizes":[],"default_left":[0,0,0,0,0,0,0,0,0,0,0,0,0,0,0,0,0,0,0,0,0,0,0,0,0,0,0],"id":2,"left_children":[1,3,5,-1,-1,7,-1,9,11,13,15,-1,17,19,-1,21,23,-1,-1,-1,-1,-1,-1,25,-1,-1,-1],"loss_changes":[4.856035E7,2.967578E6,2.8337192E7,0E0,0E0,3.3927378E6,0E0,2.9912442E6,2.731091E6,9.4660344E5,6.46172E5,0E0,1.7040173E5,5.865216E5,0E0,1.0901289E5,1.05336E6,0E0,0E0,0E0,0E0,0E0,0E0,1.226215E5,0E0,0E0,0E0],"parents":[2147483647,0,0,1,1,2,2,5,5,7,7,8,8,9,9,10,10,12,12,13,13,15,15,16,16,23,23],"right_children":[2,4,6,-1,-1,8,-1,10,12,14,16,-1,18,20,-1,22,24,-1,-1,-1,-1,-1,-1,26,-1,-1,-1],"split_conditions":[3E0,6E0,2.1E1,-7.68787E1,-7.7092886E-1,4E0,1.1219916E2,9E0,1.8E1,4.037578E3,1E0,4.009399E1,4E-1,2E0,3.1415888E1,1.97E1,4.217489E3,2.1149871E0,-1.4445267E1,1.0635953E1,-1.7454063E1,5.673974E0,-6.062335E0,1.3E1,3.4068313E0,-7.3689423E0,-4.162994E1],"split_indices":[9,1,3,0,0,1,0,6,6,10,1,0,14,1,0,12,10,0,0,0,0,0,0,6,0,0,0],"split_type":[0,0,0,0,0,0,0,0,0,0,0,0,0,0,0,0,0,0,0,0,0,0,0,0,0,0,0],"sum_hessian":[1.42E2,4.8E1,9.4E1,4.3E1,5E0,7.4E1,2E1,4.5E1,2.9E1,1.3E1,3.2E1,1.9E1,1E1,7E0,6E0,8E0,2.4E1,5E0,5E0,4E0,3E0,4E0,4E0,1.9E1,5E0,6E0,1.3E1],"tree_param":{"num_deleted":"0","num_feature":"33","num_nodes":"27","size_leaf_vector":"1"}},{"base_weights":[2.509804E1,-7.5050415E2,3.95297E2,1.5672251E1,-7.86592E1,7.408154E1,8.6245917E2,1.5473042E1,-1.3662964E1,-1.4087447E2,2.981419E2,4.733156E0,8.410377E1,1.5658693E1,-2.0078062E2,2.62872E1,4.836454E2,-2.713007E2,1.306295E1,2.1198967E1,-1.5821437E2,4.890529E1,7.1799836E0,-3.0831497E2,-7.1707416E-1,-2.0369897E0,-1.7615038E1,-3.2132183E1,-6.763041E1,1.5322529E-1,-7.7956147E0],"categories":[],"categories_nodes":[],"categories_segments":[],"categories_sizes":[],"default_left":[0,0,0,0,0,0,0,0,0,0,0,0,0,0,0,0,0,0,0,0,0,0,0,0,0,0,0,0,0,0,0],"id":3,"left_children":[1,3,5,7,-1,9,11,-1,-1,13,15,-1,-1,-1,17,19,21,23,-1,-1,25,-1,-1,27,-1,-1,-1,-1,29,-1,-1],"loss_changes":[4.7495172E7,4.226206E6,1.612723E7,6.211565E5,0E0,4.0882882E6,1.244316E6,0E0,0E0,1.1709872E6,1.9225622E6,0E0,0E0,0E0,1.3923575E6,1.3402734E6,3.78E4,3.52638E5,0E0,0E0,4.533547E4,0E0,0E0,9.026825E4,0E0,0E0,0E0,0E0,2.0577062E4,0E0,0E0],"parents":[2147483647,0,0,1,1,2,2,3,3,5,5,6,6,9,9,10,10,14,14,15,15,16,16,17,17,20,20,23,23,28,28],"right_children":[2,4,6,8,-1,10,12,-1,-1,14,16,-1,-1,-1,18,20,22,24,-1,-1,26,-1,-1,28,-1,-1,-1,-1,30,-1,-1],"split_conditions":[3E0,3E0,3E0,1E-1,-7.86592E1,9.6394806E2,1.42E1,1.5473042E1,-1.3662964E1,4E0,4E0,4.733156E0,8.410377E1,1.5658693E1,6E0,1.4E1,1.8E1,2.3E1,1.306295E1,2.1198967E1,1.0850863E3,4.890529E1,7.1799836E0,4E0,-7.1707416E-1,-2.0369897E0,-1.7615038E1,-3.2132183E1,1.45E1,1.5322529E-1,-7.7956147E0],"split_indices":[9,6,4,14,0,11,13,0,0,6,1,0,0,0,1,6,6,6,0,0,11,0,0,1,0,0,0,0,13,0,0],"split_type":[0,0,0,0,0,0,0,0,0,0,0,0,0,0,0,0,0,0,0,0,0,0,0,0,0,0,0,0,0,0,0],"sum_hessian":[1.46E2,4.4E1,1.02E2,6E0,3.8E1,6.7E1,3.5E1,3E0,3E0,3.6E1,3.1E1,3E0,3.2E1,3E0,3.3E1,1.7E1,1.4E1,2.9E1,4E0,7E0,1E1,1E1,4E0,2.4E1,5E0,5E0,5E0,1.7E1,7E0,3E0,4E0],"tree_param":{"num_deleted":"0","num_feature":"33","num_nodes":"31","size_leaf_vector":"1"}},{"base_weights":[5.2807964E1,-6.880867E2,4.0022205E2,-7.900313E2,-1.4106341E1,1.22275604E2,9.906596E1,-8.020431E1,-2.064827E2,-8.838465E0,7.135603E0,-1.4374275E2,3.088446E2,2.3615618E0,-2.656162E1,-2.9263406E2,4.032703E1,-2.1169598E2,4.899075E2,-3.1801268E1,-7.550974E1,-8.642481E-1,-2.3808731E2,5.4353326E2,-2.918477E0,-1.3259677E1,2.348992E1,-2.5771494E1,-3.8076992E0,5.741033E0,5.763636E2,4.705803E0,-2.2015617E0,1.1028505E1,5.760349E1],"categories":[],"categories_nodes":[],"categories_segments":[],"categories_sizes":[],"default_left":[0,0,0,0,0,0,0,0,0,0,0,0,0,0,0,0,0,0,0,0,0,0,0,0,0,0,0,0,0,0,0,0,0,0,0],"id":4,"left_children":[1,3,5,7,9,11,-1,-1,13,-1,-1,15,17,-1,-1,19,-1,21,23,-1,25,-1,27,29,-1,-1,31,-1,-1,-1,33,-1,-1,-1,-1],"loss_changes":[4.7815496E7,3.983658E6,2.2154144E7,6.05774E5,2.008529E5,5.3650185E6,0E0,0E0,4.176947E5,0E0,0E0,5.322336E6,6.7920915E6,0E0,0E0,2.350825E5,0E0,9.871594E4,1.52237E6,0E0,1.7039516E5,0E0,4.58805E4,3.61367E5,0E0,0E0,3.3046312E4,0E0,0E0,0E0,1.49225E5,0E0,0E0,0E0,0E0],"parents":[2147483647,0,0,1,1,2,2,3,3,4,4,5,5,8,8,11,11,12,12,15,15,17,17,18,18,20,20,22,22,23,23,26,26,30,30],"right_children":[2,4,6,8,10,12,-1,-1,14,-1,-1,16,18,-1,-1,20,-1,22,24,-1,26,-1,28,30,-1,-1,32,-1,-1,-1,34,-1,-1,-1,-1],"split_conditions":[2.2E1,2.9E1,2.2E1,1E0,5E0,4E1,9.906596E1,-8.020431E1,1.4E1,-8.838465E0,7.135603E0,6E0,1.3E1,2.3615618E0,-2.656162E1,4E0,4.032703E1,1.02E1,2E1,-3.1801268E1,9.597231E2,-8.642481E-1,2E0,1.39E1,-2.918477E0,-1.3259677E1,5E0,-2.5771494E1,-3.8076992E0,5.741033E0,9.597231E2,4.705803E0,-2.2015617E0,1.1028505E1,5.760349E1],"split_indices":[8,0,3,25,1,8,0,0,8,0,0,1,0,0,0,1,0,13,3,0,11,0,1,13,0,0,1,0,0,0,11,0,0,0,0],"split_type":[0,0,0,0,0,0,0,0,0,0,0,0,0,0,0,0,0,0,0,0,0,0,0,0,0,0,0,0,0,0,0,0,0,0,0],"sum_hessian":[1.66E2,5E1,1.16E2,4.2E1,8E0,9E1,2.6E1,3.3E1,9E0,4E0,4E0,3.8E1,5.2E1,4E0,5E0,3.4E1,4E0,1.3E1,3.9E1,2.3E1,1.1E1,3E0,1E1,3.5E1,4E0,4E0,7E0,5E0,5E0,4E0,3.1E1,4E0,3E0,6E0,2.5E1],"tree_param":{"num_deleted":"0","num_feature":"33","num_nodes":"35","size_leaf_vector":"1"}},{"base_weights":[3.4610992E1,-6.3137476E2,3.8719543E2,-7.196691E2,1.6229296E1,7.0385445E1,8.8509973E2,-7.207021E1,-1.8484505E1,-1.1369766E2,2.5169414E2,9.146921E1,9.751878E1,-2.2105392E2,2.4049543E1,-1.9228996E2,4.445694E2,-6.3707914E0,1.7561428E1,1.2790168E1,-2.6360481E1,-2.2351683E1,-0E0,4.852686E1,9.992946E-2],"categories":[],"categories_nodes":[],"categories_segments":[],"categories_sizes":[],"default_left":[0,0,0,0,0,0,0,0,0,0,0,0,0,0,0,0,0,0,0,0,0,0,0,0,0],"id":5,"left_children":[1,3,5,7,-1,9,11,-1,-1,13,15,-1,17,19,-1,21,23,-1,-1,-1,-1,-1,-1,-1,-1],"loss_changes":[4.0268744E7,5.449112E6,1.6999274E7,2.28516E5,0E0,2.8952265E6,2.554076E6,0E0,0E0,2.37618E6,4.460575E6,0E0,3.640079E5,1.3080082E6,0E0,1.8509162E5,1.149099E6,0E0,0E0,0E0,0E0,0E0,0E0,0E0,0E0],"parents":[2147483647,0,0,1,1,2,2,3,3,5,5,6,6,9,9,10,10,12,12,13,13,15,15,16,16],"right_children":[2,4,6,8,-1,10,12,-1,-1,14,16,-1,18,20,-1,22,24,-1,-1,-1,-1,-1,-1,-1,-1],"split_conditions":[3.5025334E3,2.6E1,1.9E1,1E0,1.6229296E1,4.037578E3,1.6E1,-7.207021E1,-1.8484505E1,6E0,1.44E1,9.146921E1,1.63E1,3E0,2.4049543E1,2.39E1,1.54E1,-6.3707914E0,1.7561428E1,1.2790168E1,-2.6360481E1,-2.2351683E1,-0E0,4.852686E1,9.992946E-2],"split_indices":[10,3,3,25,0,10,15,0,0,1,13,0,13,3,0,12,13,0,0,0,0,0,0,0,0],"split_type":[0,0,0,0,0,0,0,0,0,0,0,0,0,0,0,0,0,0,0,0,0,0,0,0,0],"sum_hessian":[1.52E2,5E1,1.02E2,4.6E1,4E0,6.9E1,3.3E1,3.7E1,9E0,3.6E1,3.3E1,2.7E1,6E0,3.1E1,5E0,1E1,2.3E1,3E0,3E0,3E0,2.8E1,6E0,4E0,1.8E1,5E0],"tree_param":{"num_deleted":"0","num_feature":"33","num_nodes":"25","size_leaf_vector":"1"}},{"base_weights":[-7.599223E0,-5.5007587E2,2.7029428E2,-7.614384E2,-2.13671E1,-2.2624105E1,6.589448E2,3.0298362E0,-7.6905106E1,-2.0182293E1,1.9818755E2,-1.8612402E2,2.1805899E2,1.4658432E2,7.853514E2,-2.5612667E0,2.4333368E1,-2.7955965E1,-1.9377872E1,-8.278542E0,2.9908664E2,-5.811381E0,2.1289677E2,7.6414635E1,6.9737277E0,-1.9327232E2,1.7278119E2,3.920912E2,-4.9965773E0,-6.301601E-1,2.5705624E1,-2.204475E1,-1.6781278E0,1.8071556E1,1.0513973E0,4.1256557E1,9.0624474E-2],"categories":[],"categories_nodes":[],"categories_segments":[],"categories_sizes":[],"default_left":[0,0,0,0,0,0,0,0,0,0,0,0,0,0,0,0,0,0,0,0,0,0,0,0,0,0,0,0,0,0,0,0,0,0,0,0,0],"id":6,"left_children":[1,3,5,7,9,11,13,-1,-1,-1,15,17,19,21,23,-1,-1,-1,25,-1,27,-1,29,-1,-1,31,33,35,-1,-1,-1,-1,-1,-1,-1,-1,-1],"loss_changes":[2.6075728E7,6.38607E6,1.3184274E7,2.570432E6,1.5602958E6,3.3212032E6,2.107992E6,0E0,0E0,0E0,3.2718244E5,9.027374E5,1.1170311E6,4.2727116E5,4.89944E5,0E0,0E0,0E0,1.3397899E6,0E0,1.17333E6,0E0,2.8351175E5,0E0,0E0,1.2035656E5,4.9681E4,5.127695E5,0E0,0E0,0E0,0E0,0E0,0E0,0E0,0E0,0E0],"parents":[2147483647,0,0,1,1,2,2,3,3,4,4,5,5,6,6,10,10,11,11,12,12,13,13,14,14,18,18,20,20,22,22,25,25,26,26,27,27],"right_children":[2,4,6,8,10,12,14,-1,-1,-1,16,18,20,22,24,-1,-1,-1,26,-1,28,-1,30,-1,-1,32,34,36,-1,-1,-1,-1,-1,-1,-1,-1,-1],"split_conditions":[2.2E1,2.6E1,1.4E1,2E0,5E0,4E0,1.9E1,3.0298362E0,-7.6905106E1,-2.0182293E1,2.3319E3,4E1,3E0,3.6627E3,4.5E1,-2.5612667E0,2.4333368E1,-2.7955965E1,1.4E1,-8.278542E0,1.54E1,-5.811381E0,1.45E1,7.6414635E1,6.9737277E0,4.217489E3,2.9E1,4.4E1,-4.9965773E0,-6.301601E-1,2.5705624E1,-2.204475E1,-1.6781278E0,1.8071556E1,1.0513973E0,4.1256557E1,9.0624474E-2],"split_indices":[8,0,3,3,1,1,0,0,0,0,10,8,0,10,8,0,0,0,0,0,13,0,13,0,0,10,0,8,0,0,0,0,0,0,0,0,0],"split_type":[0,0,0,0,0,0,0,0,0,0,0,0,0,0,0,0,0,0,0,0,0,0,0,0,0,0,0,0,0,0,0,0,0,0,0,0,0],"sum_hessian":[1.54E2,4.9E1,1.05E2,3.2E1,1.7E1,6.5E1,4E1,3E0,2.9E1,9E0,8E0,4E1,2.5E1,1.2E1,2.8E1,3E0,5E0,1.9E1,2.1E1,5E0,2E1,3E0,9E0,2.5E1,3E0,1.1E1,1E1,1.5E1,5E0,4E0,5E0,6E0,5E0,7E0,3E0,1.2E1,3E0],"tree_param":{"num_deleted":"0","num_feature":"33","num_nodes":"37","size_leaf_vector":"1"}},{"base_weights":[-3.9161957E1,-6.0220575E2,2.8429575E2,-7.6400793E2,-6.7662636E1,8.4182043E2,2.479414E1,1.7955534E0,-8.2364404E2,-1.2497356E1,5.4226936E1,8.2771416E1,6.664857E0,-2.008341E2,2.1380682E2,-7.9332214E1,-8.286609E0,-2.504633E0,8.733523E0,-2.9522888E2,2.3061842E1,2.3478374E1,3.4240772E1,-3.5811856E2,-2.1412071E1,-1.2614339E2,1.7083565E1,-4.1617208E0,-3.5882362E1,5.0357265E0,-7.613861E0,-1.4686797E1,1.8990952E0],"categories":[],"categories_nodes":[],"categories_segments":[],"categories_sizes":[],"default_left":[0,0,0,0,0,0,0,0,0,0,0,0,0,0,0,0,0,0,0,0,0,0,0,0,0,0,0,0,0,0,0,0,0],"id":7,"left_children":[1,3,5,7,9,11,13,-1,15,-1,17,-1,-1,19,21,-1,-1,-1,-1,23,-1,25,-1,27,29,31,-1,-1,-1,-1,-1,-1,-1],"loss_changes":[3.0328744E7,4.741734E6,1.5214543E7,2.282298E6,2.7193775E5,7.5136E5,3.9305755E6,0E0,3.26484E5,0E0,7.535214E4,0E0,0E0,2.5110522E6,1.3908918E6,0E0,0E0,0E0,0E0,6.0711725E5,0E0,1.0077143E6,0E0,1.268975E5,1.2391734E5,1.39324E5,0E0,0E0,0E0,0E0,0E0,0E0,0E0],"parents":[2147483647,0,0,1,1,2,2,3,3,4,4,5,5,6,6,8,8,10,10,13,13,14,14,19,19,21,21,23,23,24,24,25,25],"right_children":[2,4,6,8,10,12,14,-1,16,-1,18,-1,-1,20,22,-1,-1,-1,-1,24,-1,26,-1,28,30,32,-1,-1,-1,-1,-1,-1,-1],"split_conditions":[3.5025334E3,2.6E1,5E0,3E0,1E0,1.6E1,1.5E1,1.7955534E0,2.4E1,-1.2497356E1,2.3319E3,8.2771416E1,6.664857E0,2.46E1,1.4E1,-7.9332214E1,-8.286609E0,-2.504633E0,8.733523E0,4.217489E3,2.3061842E1,4.037578E3,3.4240772E1,9.4E0,1E0,3.2E1,1.7083565E1,-4.1617208E0,-3.5882362E1,5.0357265E0,-7.613861E0,-1.4686797E1,1.8990952E0],"split_indices":[10,0,6,6,2,15,0,0,0,0,10,0,0,15,3,0,0,0,0,10,0,10,0,13,2,0,0,0,0,0,0,0,0],"split_type":[0,0,0,0,0,0,0,0,0,0,0,0,0,0,0,0,0,0,0,0,0,0,0,0,0,0,0,0,0,0,0,0,0],"sum_hessian":[1.48E2,5.1E1,9.7E1,3.6E1,1.5E1,2.4E1,7.3E1,3E0,3.3E1,9E0,6E0,2.1E1,3E0,3.3E1,4E1,3E1,3E0,3E0,3E0,3E1,3E0,2.3E1,1.7E1,2.2E1,8E0,1.3E1,1E1,4E0,1.8E1,4E0,4E0,1E1,3E0],"tree_param":{"num_deleted":"0","num_feature":"33","num_nodes":"33","size_leaf_vector":"1"}},{"base_weights":[-1.8123774E1,-5.915624E2,3.0038748E2,-6.3679974E1,1.1144651E2,7.481161E1,8.466383E1,1.8041466E1,-5.2545524E0,-7.641223E1,2.707583E2,1.7266216E2,-1.8373979E2,3.6285788E2,-3.0142147E1,2.8271109E1,-5.179402E1,-2.5199884E2,8.116781E1,-2.8507748E0,4.2838895E2,-6.745402E1,3.5960255E0,-1.3362156E1,6.511512E0,-2.8400455E1,-1.5599556E0,1.3151911E1,-4.284998E0,4.6074207E1,1.9108391E-3,-6.898262E0,-8.1889135E-1,-8.205736E0,8.6554365E0],"categories":[],"categories_nodes":[],"categories_segments":[],"categories_sizes":[],"default_left":[0,0,0,0,0,0,0,0,0,0,0,0,0,0,0,0,0,0,0,0,0,0,0,0,0,0,0,0,0,0,0,0,0,0,0],"id":8,"left_children":[1,3,5,-1,7,9,-1,-1,-1,11,13,15,17,19,21,-1,23,25,27,-1,29,31,-1,-1,-1,-1,33,-1,-1,-1,-1,-1,-1,-1,-1],"loss_changes":[3.1021482E7,4.857266E6,1.4539452E7,0E0,3.247854E5,2.8811082E6,0E0,0E0,0E0,1.8681845E6,1.2565435E6,8.2468694E5,1.0193091E6,9.6656E5,7.286692E4,0E0,2.8463516E5,5.2615875E5,1.9182281E5,0E0,8.5152E5,2.7859375E1,0E0,0E0,0E0,0E0,2.1647747E5,0E0,0E0,0E0,0E0,0E0,0E0,0E0,0E0],"parents":[2147483647,0,0,1,1,2,2,4,4,5,5,9,9,10,10,11,11,12,12,13,13,14,14,16,16,17,17,18,18,20,20,21,21,26,26],"right_children":[2,4,6,-1,8,10,-1,-1,-1,12,14,16,18,20,22,-1,24,26,28,-1,30,32,-1,-1,-1,-1,34,-1,-1,-1,-1,-1,-1,-1,-1],"split_conditions":[3E0,2.5E1,2.2E1,-6.3679974E1,1E-1,4E0,8.466383E1,1.8041466E1,-5.2545524E0,5E0,1.57E1,1E0,1.5E1,3E0,6E0,2.8271109E1,4.037578E3,4.217489E3,1.14E1,-2.8507748E0,4.4E1,9E0,3.5960255E0,-1.3362156E1,6.511512E0,-2.8400455E1,2E0,1.3151911E1,-4.284998E0,4.6074207E1,1.9108391E-3,-6.898262E0,-8.1889135E-1,-8.205736E0,8.6554365E0],"split_indices":[9,3,3,0,14,1,0,0,0,3,13,1,3,3,1,0,10,10,15,0,8,3,0,0,0,0,1,0,0,0,0,0,0,0,0],"split_type":[0,0,0,0,0,0,0,0,0,0,0,0,0,0,0,0,0,0,0,0,0,0,0,0,0,0,0,0,0,0,0,0,0,0,0],"sum_hessian":[1.51E2,5.1E1,1E2,4.5E1,6E0,8.1E1,1.9E1,3E0,3E0,4.9E1,3.2E1,1.3E1,3.6E1,2.3E1,9E0,6E0,7E0,2.9E1,7E0,4E0,1.9E1,6E0,3E0,3E0,4E0,2.2E1,7E0,4E0,3E0,1.5E1,4E0,3E0,3E0,4E0,3E0],"tree_param":{"num_deleted":"0","num_feature":"33","num_nodes":"35","size_leaf_vector":"1"}},{"base_weights":[8.368496E1,5.700112E2,-1.14456985E2,-1.5667012E1,6.842178E2,-3.3727173E2,2.5498366E2,6.9157845E1,1.3769228E2,-4.7827817E2,-1.1312917E2,-1.1213325E2,4.025428E1,-5.108308E0,2.030058E1,-5.8734592E1,-9.368329E1,-1.8275092E2,1.4339953E1,-1.9904732E2,6.588364E1,-1.4370861E1,5.067941E0,-2.0550336E2,6.739045E-1,-2.7336195E1,4.7934866E0,1.7318495E1,-9.753611E0,-5.7435423E-1,-2.1751202E1],"categories":[],"categories_nodes":[],"categories_segments":[],"categories_sizes":[],"default_left":[0,0,0,0,0,0,0,0,0,0,0,0,0,0,0,0,0,0,0,0,0,0,0,0,0,0,0,0,0,0,0],"id":9,"left_children":[1,3,5,-1,7,9,11,-1,13,15,17,19,-1,-1,-1,-1,21,23,-1,25,27,-1,-1,29,-1,-1,-1,-1,-1,-1,-1],"loss_changes":[1.7251116E7,5.460712E6,1.1567905E7,0E0,6.29024E5,2.186019E6,4.0753125E6,0E0,3.771392E5,2.416538E6,1.1210096E6,5.2080272E5,0E0,0E0,0E0,0E0,3.1544888E5,1.9000062E5,0E0,6.1989306E5,5.1196725E5,0E0,0E0,2.0154075E5,0E0,0E0,0E0,0E0,0E0,0E0,0E0],"parents":[2147483647,0,0,1,1,2,2,4,4,5,5,6,6,8,8,9,9,10,10,11,11,16,16,17,17,19,19,20,20,23,23],"right_children":[2,4,6,-1,8,10,12,-1,14,16,18,20,-1,-1,-1,-1,22,24,-1,26,28,-1,-1,30,-1,-1,-1,-1,-1,-1,-1],"split_conditions":[5E0,2.3319E3,4E1,-1.5667012E1,1E0,3.4E1,1.4E1,6.9157845E1,2.4E1,2.3E1,1.5E1,1E0,4.025428E1,-5.108308E0,2.030058E1,-5.8734592E1,3.2E1,3.1E1,1.4339953E1,4.217489E3,1E0,-1.4370861E1,5.067941E0,5E0,6.739045E-1,-2.7336195E1,4.7934866E0,1.7318495E1,-9.753611E0,-5.7435423E-1,-2.1751202E1],"split_indices":[6,10,8,0,17,8,0,0,0,0,3,2,0,0,0,0,0,0,0,10,32,0,0,0,0,0,0,0,0,0,0],"split_type":[0,0,0,0,0,0,0,0,0,0,0,0,0,0,0,0,0,0,0,0,0,0,0,0,0,0,0,0,0,0,0],"sum_hessian":[1.63E2,4.2E1,1.21E2,5E0,3.7E1,7.6E1,4.5E1,3E1,7E0,4E1,3.6E1,1.6E1,2.9E1,3E0,4E0,2.4E1,1.6E1,3.1E1,5E0,1E1,6E0,1.1E1,5E0,2.7E1,4E0,6E0,4E0,3E0,3E0,5E0,2.2E1],"tree_param":{"num_deleted":"0","num_feature":"33","num_nodes":"31","size_leaf_vector":"1"}},{"base_weights":[1.929319E1,-3.1880948E2,3.1656384E2,-4.0995438E2,1.5547063E2,3.452961E0,6.319049E2,-5.1593774E2,-3.668488E1,3.6372883E1,-1.8549427E1,-1.3654617E2,2.4483247E2,7.142232E2,-7.205192E0,-5.75968E2,-3.8082407E0,-1.20604315E1,8.220751E1,-2.4978578E2,1.0067261E2,-8.529531E-1,2.6304522E1,2.4319736E1,8.240191E2,-4.4396696E0,-5.7703255E1,9.697333E0,-1.0147658E1,1.1046317E1,-1.1845071E0,1.150162E0,-3.0371146E2,-2.7622736E0,1.3934332E2,9.2541275E0,8.029988E1,-3.302863E1,-6.6999905E-2,2.1218202E0,1.455955E1],"categories":[],"categories_nodes":[],"categories_segments":[],"categories_sizes":[],"default_left":[0,0,0,0,0,0,0,0,0,0,0,0,0,0,0,0,0,0,0,0,0,0,0,0,0,0,0,0,0,0,0,0,0,0,0,0,0,0,0,0,0],"id":10,"left_children":[1,3,5,7,9,11,13,15,17,-1,-1,19,21,23,-1,25,27,-1,29,31,33,-1,-1,-1,35,-1,-1,-1,-1,-1,-1,-1,37,-1,39,-1,-1,-1,-1,-1,-1],"loss_changes":[1.8105456E7,4.264101E6,9.412261E6,2.727872E6,2.4927732E6,2.2642518E6,3.310818E6,1.716494E6,3.9821888E5,0E0,0E0,1.3834322E6,2.7217562E5,8.6944E4,0E0,9.89893E5,2.887464E5,0E0,7.685495E4,4.827415E5,1.4367861E5,0E0,0E0,0E0,1.43876E5,0E0,0E0,0E0,0E0,0E0,0E0,0E0,4.2605975E5,0E0,2.0693125E3,0E0,0E0,0E0,0E0,0E0,0E0],"parents":[2147483647,0,0,1,1,2,2,3,3,4,4,5,5,6,6,7,7,8,8,11,11,12,12,13,13,15,15,16,16,18,18,19,19,20,20,24,24,32,32,34,34],"right_children":[2,4,6,8,10,12,14,16,18,-1,-1,20,22,24,-1,26,28,-1,30,32,34,-1,-1,-1,36,-1,-1,-1,-1,-1,-1,-1,38,-1,40,-1,-1,-1,-1,-1,-1],"split_conditions":[3.6627E3,6.514391E-1,4E0,2.6E1,1E-1,4.217489E3,4.9E1,4E1,4E0,3.6372883E1,-1.8549427E1,2.7E1,1.2E1,4.037578E3,-7.205192E0,5E0,1E-1,-1.20604315E1,1.4E1,1E0,2E0,-8.529531E-1,2.6304522E1,2.4319736E1,1.3E1,-4.4396696E0,-5.7703255E1,9.697333E0,-1.0147658E1,1.1046317E1,-1.1845071E0,1.150162E0,3E0,-2.7622736E0,3E0,9.2541275E0,8.029988E1,-3.302863E1,-6.6999905E-2,2.1218202E0,1.455955E1],"split_indices":[10,7,1,0,14,10,8,8,1,0,0,0,0,10,0,0,14,0,8,1,1,0,0,0,13,0,0,0,0,0,0,0,4,0,1,0,0,0,0,0,0],"split_type":[0,0,0,0,0,0,0,0,0,0,0,0,0,0,0,0,0,0,0,0,0,0,0,0,0,0,0,0,0,0,0,0,0,0,0,0,0,0,0,0,0],"sum_hessian":[1.61E2,7.5E1,8.6E1,6.4E1,1.1E1,4.8E1,3.8E1,4.7E1,1.7E1,6E0,5E0,3.3E1,1.5E1,3.4E1,4E0,4.1E1,6E0,9E0,8E0,2.2E1,1.1E1,3E0,1.2E1,1.3E1,2.1E1,5E0,3.6E1,3E0,3E0,4E0,4E0,5E0,1.7E1,3E0,8E0,3E0,1.8E1,1.3E1,4E0,4E0,4E0],"tree_param":{"num_deleted":"0","num_feature":"33","num_nodes":"41","size_leaf_vector":"1"}},{"base_weights":[-3.2962105E1,-4.1350253E2,2.2075294E2,-4.997747E2,1.3020164E2,8.5596E1,5.9748604E1,-2.2532837E1,-5.50134E2,-5.99191E0,2.027268E1,-5.249876E1,2.6242776E2,-9.7959175E0,7.1995378E0,-6.834825E0,-5.4143257E1,-1.397428E2,1.8078479E2,7.183483E1,4.0517053E2,-1.9957454E2,4.0283485E1,-6.7962825E-1,2.3160769E1,-6.460191E1,1.5506218E2,4.098657E1,4.039072E0,-2.1989449E2,5.97972E-1,-4.492809E0,9.511472E0,-7.648517E0,-7.836307E-2,1.606429E1,1.008101E0,-3.056298E-1,-2.4808153E2,-2.7806126E1,-3.075397E0],"categories":[],"categories_nodes":[],"categories_segments":[],"categories_sizes":[],"default_left":[0,0,0,0,0,0,0,0,0,0,0,0,0,0,0,0,0,0,0,0,0,0,0,0,0,0,0,0,0,0,0,0,0,0,0,0,0,0,0,0,0],"id":11,"left_children":[1,3,5,7,9,11,-1,13,15,-1,-1,17,19,-1,-1,-1,-1,21,23,25,27,29,31,-1,-1,33,35,-1,-1,37,-1,-1,-1,-1,-1,-1,-1,-1,39,-1,-1],"loss_changes":[1.5890273E7,3.696852E6,5.1913295E6,1.287706E6,4.229437E5,2.2454778E6,0E0,2.0888278E5,4.66622E5,0E0,0E0,1.3921278E6,7.97135E5,0E0,0E0,0E0,0E0,5.784807E5,2.7402038E5,4.2002838E5,9.60705E4,1.6700075E5,1.5644247E5,0E0,0E0,1.9408945E4,3.6698625E4,0E0,0E0,1.965235E5,0E0,0E0,0E0,0E0,0E0,0E0,0E0,0E0,2.3737388E5,0E0,0E0],"parents":[2147483647,0,0,1,1,2,2,3,3,4,4,5,5,7,7,8,8,11,11,12,12,17,17,18,18,19,19,20,20,21,21,22,22,25,25,26,26,29,29,38,38],"right_children":[2,4,6,8,10,12,-1,14,16,-1,-1,18,20,-1,-1,-1,-1,22,24,26,28,30,32,-1,-1,34,36,-1,-1,38,-1,-1,-1,-1,-1,-1,-1,-1,40,-1,-1],"split_conditions":[3.5E1,3E1,7.514773E-1,1.4E1,2.3319E3,4E0,5.9748604E1,4.2437285E-1,5E0,-5.99191E0,2.027268E1,4.4E1,4.037578E3,-9.7959175E0,7.1995378E0,-6.834825E0,-5.4143257E1,2.4E1,2.7645305E-1,2E0,2.49E1,4.217489E3,4.037578E3,-6.7962825E-1,2.3160769E1,2.6E1,1E-1,4.098657E1,4.039072E0,6E0,5.97972E-1,-4.492809E0,9.511472E0,-7.648517E0,-7.836307E-2,1.606429E1,1.008101E0,-3.056298E-1,3E0,-2.7806126E1,-3.075397E0],"split_indices":[8,0,7,8,10,1,0,7,0,0,0,8,10,0,0,0,0,0,7,4,12,10,10,0,0,0,14,0,0,0,0,0,0,0,0,0,0,0,4,0,0],"split_type":[0,0,0,0,0,0,0,0,0,0,0,0,0,0,0,0,0,0,0,0,0,0,0,0,0,0,0,0,0,0,0,0,0,0,0,0,0,0,0,0,0],"sum_hessian":[1.46E2,5.6E1,9E1,4.9E1,7E0,7.7E1,1.3E1,6E0,4.3E1,3E0,4E0,4.7E1,3E1,3E0,3E0,5E0,3.8E1,3.7E1,1E1,1.9E1,1.1E1,2.7E1,1E1,5E0,5E0,8E0,1.1E1,8E0,3E0,2.4E1,3E0,5E0,5E0,4E0,4E0,8E0,3E0,4E0,2E1,1.3E1,7E0],"tree_param":{"num_deleted":"0","num_feature":"33","num_nodes":"41","size_leaf_vector":"1"}},{"base_weights":[5.0144947E1,-1.4666608E2,3.777546E2,2.8158142E2,-2.582142E2,-4.4418556E1,5.168655E2,2.7676653E1,3.2828739E0,-3.2667148E2,1.10036606E2,1.5340761E1,-1.5227763E2,1.2689423E2,6.5144165E2,-4.3178073E2,-7.525967E1,2.654396E2,-1.453986E1,-1.8701315E1,8.0467716E-2,-1.6488459E1,1.9508944E1,6.687513E1,8.62148E0,-4.671617E1,-1.1733336E1,-1.5621844E2,1.4263524E1,2.8301138E1,1.8088063E0,6.3979235E0,-7.370089E0,-1.8474892E2,2.114958E0,-1.8632076E1,-1.1761708E0],"categories":[],"categories_nodes":[],"categories_segments":[],"categories_sizes":[],"default_left":[0,0,0,0,0,0,0,0,0,0,0,0,0,0,0,0,0,0,0,0,0,0,0,0,0,0,0,0,0,0,0,0,0,0,0,0,0],"id":12,"left_children":[1,3,5,7,9,11,13,-1,-1,15,17,-1,19,21,23,25,27,29,-1,-1,-1,31,-1,-1,-1,-1,-1,33,-1,-1,-1,-1,-1,35,-1,-1,-1],"loss_changes":[1.030106E7,5.545385E6,3.717446E6,8.7825E3,2.500358E6,7.752456E5,1.599596E6,0E0,0E0,1.6587505E6,1.2520554E6,0E0,1.5909853E5,3.1726044E5,6.14799E5,5.16255E5,8.533045E5,1.07137375E5,0E0,0E0,0E0,1.476371E5,0E0,0E0,0E0,0E0,0E0,1.9162556E5,0E0,0E0,0E0,0E0,0E0,5.13185E4,0E0,0E0,0E0],"parents":[2147483647,0,0,1,1,2,2,3,3,4,4,5,5,6,6,9,9,10,10,12,12,13,13,14,14,15,15,16,16,17,17,21,21,27,27,33,33],"right_children":[2,4,6,8,10,12,14,-1,-1,16,18,-1,20,22,24,26,28,30,-1,-1,-1,32,-1,-1,-1,-1,-1,34,-1,-1,-1,-1,-1,36,-1,-1,-1],"split_conditions":[4.037578E3,4E0,1.36E1,1.48E1,6E0,9.5E0,3E0,2.7676653E1,3.2828739E0,3.7E1,3E0,1.5340761E1,1.99E1,4.217489E3,1.57E1,2.4E1,1E0,2.03E1,-1.453986E1,-1.8701315E1,8.0467716E-2,4.2E1,1.9508944E1,6.687513E1,8.62148E0,-4.671617E1,-1.1733336E1,3.1E1,1.4263524E1,2.8301138E1,1.8088063E0,6.3979235E0,-7.370089E0,3E0,2.114958E0,-1.8632076E1,-1.1761708E0],"split_indices":[10,6,13,15,1,13,1,0,0,8,4,0,12,10,13,0,24,12,0,0,0,8,0,0,0,0,0,0,0,0,0,0,0,4,0,0,0],"split_type":[0,0,0,0,0,0,0,0,0,0,0,0,0,0,0,0,0,0,0,0,0,0,0,0,0,0,0,0,0,0,0,0,0,0,0,0,0],"sum_hessian":[1.42E2,9.2E1,5E1,1.6E1,7.6E1,1.4E1,3.6E1,1.3E1,3E0,6.5E1,1.1E1,3E0,1.1E1,1.4E1,2.2E1,4.1E1,2.4E1,7E0,4E0,6E0,5E0,8E0,6E0,1.7E1,5E0,2.8E1,1.3E1,2E1,4E0,4E0,3E0,3E0,5E0,1.7E1,3E0,1.4E1,3E0],"tree_param":{"num_deleted":"0","num_feature":"33","num_nodes":"37","size_leaf_vector":"1"}},{"base_weights":[-1.0062908E1,-3.8384094E2,2.04214E2,-5.1813244E1,-8.607799E1,7.5209984E1,4.8726083E2,1.1832657E2,-2.2961722E2,-4.3495995E1,4.3061795E2,4.8603382E1,5.8510046E0,1.8361374E1,-1.54805E1,-2.5492228E1,-1.21437445E-1,2.9274546E1,-1.1387042E2,4.847901E1,-3.9343026E0,-1.0986755E1,9.959994E0,-1.532532E1,-2.3600904E1,-1.6933E2,7.4513275E1,7.528364E0,-2.5055353E1,-1.0492826E2,1.7252939E2,4.7793064E-1,-1.2630194E1,1.997141E1,3.2793072E-1],"categories":[],"categories_nodes":[],"categories_segments":[],"categories_sizes":[],"default_left":[0,0,0,0,0,0,0,0,0,0,0,0,0,0,0,0,0,0,0,0,0,0,0,0,0,0,0,0,0,0,0,0,0,0,0],"id":13,"left_children":[1,3,5,-1,7,9,11,13,15,17,19,-1,-1,-1,21,-1,-1,-1,23,-1,-1,-1,-1,25,-1,27,29,-1,-1,31,33,-1,-1,-1,-1],"loss_changes":[1.3767876E7,2.821964E6,3.6490935E6,0E0,1.2733805E6,3.8310632E6,2.084395E5,2.5014962E5,2.4320875E5,2.207039E6,1.2111722E6,0E0,0E0,0E0,3.3269806E5,0E0,0E0,0E0,9.164963E5,0E0,0E0,0E0,0E0,8.200616E5,0E0,7.594997E5,8.510365E5,0E0,0E0,7.502989E4,2.0155362E5,0E0,0E0,0E0,0E0],"parents":[2147483647,0,0,1,1,2,2,4,4,5,5,6,6,7,7,8,8,9,9,10,10,14,14,18,18,23,23,25,25,26,26,29,29,30,30],"right_children":[2,4,6,-1,8,10,12,14,16,18,20,-1,-1,-1,22,-1,-1,-1,24,-1,-1,-1,-1,26,-1,28,30,-1,-1,32,34,-1,-1,-1,-1],"split_conditions":[3.2E1,1E0,1.9E1,-5.1813244E1,2.03E1,6E0,1.48E1,2E0,4E0,2E0,1E0,4.8603382E1,5.8510046E0,1.8361374E1,5E0,-2.5492228E1,-1.21437445E-1,2.9274546E1,1.5E1,4.847901E1,-3.9343026E0,-1.0986755E1,9.959994E0,1.99E1,-2.3600904E1,1E0,4E1,7.528364E0,-2.5055353E1,1E0,4.4E1,4.7793064E-1,-1.2630194E1,1.997141E1,3.2793072E-1],"split_indices":[8,27,3,0,12,1,15,1,1,3,21,0,0,0,1,0,0,0,13,0,0,0,0,12,0,1,8,0,0,17,8,0,0,0,0],"split_type":[0,0,0,0,0,0,0,0,0,0,0,0,0,0,0,0,0,0,0,0,0,0,0,0,0,0,0,0,0,0,0,0,0,0,0],"sum_hessian":[1.53E2,5.3E1,1E2,2.8E1,2.5E1,7.7E1,2.3E1,1.1E1,1.4E1,6.4E1,1.3E1,1.9E1,4E0,4E0,7E0,1E1,4E0,5E0,5.9E1,1E1,3E0,4E0,3E0,4.1E1,1.8E1,1.2E1,2.9E1,4E0,8E0,1E1,1.9E1,4E0,6E0,1.3E1,6E0],"tree_param":{"num_deleted":"0","num_feature":"33","num_nodes":"35","size_leaf_vector":"1"}},{"base_weights":[4.4134068E1,-3.8783588E2,2.5933035E2,7.705066E0,-4.4089053E2,3.1244293E1,5.408214E2,-4.910889E1,-1.218082E1,-3.9720768E1,3.5513645E1,6.346757E2,-1.097357E0,5.731615E0,-5.981121E0,-1.8400003E2,6.533268E1,2.9352036E0,6.923188E2,-1.2347989E1,1.3184179E1,-1.0137179E0,-2.0605743E2,-9.5019066E1,1.6920835E1,6.7247894E1,6.717332E0,-2.2939842E1,-7.9201406E-1,-1.1010798E2,-3.6201397E-1,-1.1830179E2,-1.3005195E0,-2.079362E-1,-1.374568E1],"categories":[],"categories_nodes":[],"categories_segments":[],"categories_sizes":[],"default_left":[0,0,0,0,0,0,0,0,0,0,0,0,0,0,0,0,0,0,0,0,0,0,0,0,0,0,0,0,0,0,0,0,0,0,0],"id":14,"left_children":[1,3,5,-1,7,9,11,-1,13,15,-1,17,19,-1,-1,21,23,-1,25,-1,-1,-1,27,29,-1,-1,-1,-1,-1,31,-1,33,-1,-1,-1],"loss_changes":[1.5141069E7,1.714921E6,6.7427135E6,0E0,1.88799E6,1.887014E6,2.426303E6,0E0,1.1044775E5,1.1237264E6,0E0,1.198175E6,4.963985E5,0E0,0E0,9.4630375E4,1.0250785E6,0E0,2.79932E5,0E0,0E0,0E0,1.9915562E5,3.0793406E4,0E0,0E0,0E0,0E0,0E0,8.266719E2,0E0,6.1756344E4,0E0,0E0,0E0],"parents":[2147483647,0,0,1,1,2,2,4,4,5,5,6,6,8,8,9,9,11,11,12,12,15,15,16,16,18,18,22,22,23,23,29,29,31,31],"right_children":[2,4,6,-1,8,10,12,-1,14,16,-1,18,20,-1,-1,22,24,-1,26,-1,-1,-1,28,30,-1,-1,-1,-1,-1,32,-1,34,-1,-1,-1],"split_conditions":[2.2E1,3E0,1.4E1,7.705066E0,2.6E1,2.45E1,1.6E1,-4.910889E1,2.9E1,1.4E1,3.5513645E1,2E1,1.65E1,5.731615E0,-5.981121E0,1.71E1,4E1,2.9352036E0,1E0,-1.2347989E1,1.3184179E1,-1.0137179E0,4E0,5E0,1.6920835E1,6.7247894E1,6.717332E0,-2.2939842E1,-7.9201406E-1,3E1,-3.6201397E-1,1E0,-1.3005195E0,-2.079362E-1,-1.374568E1],"split_indices":[8,3,3,0,0,15,15,0,0,0,0,12,13,0,0,12,8,0,32,0,0,0,1,1,0,0,0,0,0,0,0,17,0,0,0],"split_type":[0,0,0,0,0,0,0,0,0,0,0,0,0,0,0,0,0,0,0,0,0,0,0,0,0,0,0,0,0,0,0,0,0,0,0],"sum_hessian":[1.43E2,4.5E1,9.8E1,4E0,4.1E1,6E1,3.8E1,3.2E1,9E0,5.7E1,3E0,3.1E1,7E0,3E0,6E0,2.1E1,3.6E1,4E0,2.7E1,4E0,3E0,4E0,1.7E1,1.6E1,2E1,2.4E1,3E0,1.2E1,5E0,1.2E1,4E0,9E0,3E0,4E0,5E0],"tree_param":{"num_deleted":"0","num_feature":"33","num_nodes":"35","size_leaf_vector":"1"}},{"base_weights":[3.792376E1,-2.175452E2,2.7126407E2,1.2858284E2,-2.9724E2,6.099762E1,9.944242E1,2.8322304E1,-1.1827915E1,-3.3449432E2,3.2648533E1,-9.524943E1,2.1278468E2,-1.3373635E1,-3.8702502E2,6.8929954E0,-3.1372397E0,4.0056854E1,-1.8952E1,9.6427704E1,3.5910632E2,1.4186512E1,-1.293647E1,-3.7973877E1,1.20662E-2,-8.294735E0,1.0572569E1,2.0504251E2,-9.919066E1,4.3494194E1,-3.9603496E0,2.7242447E2,-1.8477669E1,-1.8373735E1,6.6658874E0,2.165513E0,2.9041876E1,2.1223574E0,-4.2539682E0],"categories":[],"categories_nodes":[],"categories_segments":[],"categories_sizes":[],"default_left":[0,0,0,0,0,0,0,0,0,0,0,0,0,0,0,0,0,0,0,0,0,0,0,0,0,0,0,0,0,0,0,0,0,0,0,0,0,0,0],"id":15,"left_children":[1,3,5,7,9,-1,11,-1,-1,13,15,17,19,21,23,-1,-1,25,-1,27,29,-1,-1,-1,-1,-1,-1,31,33,-1,-1,35,37,-1,-1,-1,-1,-1,-1],"loss_changes":[9.83619E6,2.5596728E6,5.078164E6,1.3557739E6,9.35035E5,0E0,1.7505905E6,0E0,0E0,9.880855E5,6.755205E4,5.6155344E5,4.7801275E5,5.960224E5,4.794595E5,0E0,0E0,3.1511375E5,0E0,1.03475075E6,9.76737E5,0E0,0E0,0E0,0E0,0E0,0E0,4.7854788E5,4.8691212E5,0E0,0E0,1.6243838E5,2.7840672E4,0E0,0E0,0E0,0E0,0E0,0E0],"parents":[2147483647,0,0,1,1,2,2,3,3,4,4,6,6,9,9,10,10,11,11,12,12,13,13,14,14,17,17,19,19,20,20,27,27,28,28,31,31,32,32],"right_children":[2,4,6,8,10,-1,12,-1,-1,14,16,18,20,22,24,-1,-1,26,-1,28,30,-1,-1,-1,-1,-1,-1,32,34,-1,-1,36,38,-1,-1,-1,-1,-1,-1],"split_conditions":[3.6627E3,3E0,4E0,1E-1,4.1E1,6.099762E1,3E0,2.8322304E1,-1.1827915E1,1.4E1,1.48E1,1.2E1,6E0,9E0,2.3E1,6.8929954E0,-3.1372397E0,3.9E1,-1.8952E1,1.0850863E3,4.217489E3,1.4186512E1,-1.293647E1,-3.7973877E1,1.20662E-2,-8.294735E0,1.0572569E1,5E0,1.445E1,4.3494194E1,-3.9603496E0,2E0,1.5E1,-1.8373735E1,6.6658874E0,2.165513E0,2.9041876E1,2.1223574E0,-4.2539682E0],"split_indices":[10,6,6,14,8,0,1,0,0,8,15,6,1,6,6,0,0,8,0,11,10,0,0,0,0,0,0,1,15,0,0,4,6,0,0,0,0,0,0],"split_type":[0,0,0,0,0,0,0,0,0,0,0,0,0,0,0,0,0,0,0,0,0,0,0,0,0,0,0,0,0,0,0,0,0,0,0,0,0,0,0],"sum_hessian":[1.46E2,7E1,7.6E1,1.2E1,5.8E1,1.5E1,6.1E1,6E0,6E0,5.2E1,6E0,2.3E1,3.8E1,9E0,4.3E1,3E0,3E0,1.3E1,1E1,3E1,8E0,3E0,6E0,4E1,3E0,4E0,9E0,1.9E1,1.1E1,5E0,3E0,1.3E1,6E0,6E0,5E0,4E0,9E0,3E0,3E0],"tree_param":{"num_deleted":"0","num_feature":"33","num_nodes":"39","size_leaf_vector":"1"}},{"base_weights":[-2.386862E1,-3.4603934E2,1.7928503E2,-4.4555304E2,5.852376E0,1.3575521E1,4.3173843E2,-4.7588712E2,-6.138079E0,-7.7915344E0,7.746088E1,1.0043891E2,-1.5662074E2,4.8185135E2,-3.2010603E0,-4.607662E1,-4.190047E0,-1.9003366E0,1.0293551E1,2.599103E1,9.75936E0,-2.1192202E1,3.5237587E1,1.387017E2,5.4187183E1,7.920062E1,-1.2450034E2,-5.2789986E-1,4.580391E0,1.4281429E1,1.023238E0,1.998589E1,7.259103E-1,-1.3832833E1,1.0355707E-1,-1.4148445E1,1.2692325E2,2.0711808E0,1.3358202E1],"categories":[],"categories_nodes":[],"categories_segments":[],"categories_sizes":[],"default_left":[0,0,0,0,0,0,0,0,0,0,0,0,0,0,0,0,0,0,0,0,0,0,0,0,0,0,0,0,0,0,0,0,0,0,0,0,0,0,0],"id":16,"left_children":[1,3,5,7,9,11,13,15,-1,-1,17,19,21,23,-1,-1,-1,-1,-1,-1,25,-1,27,29,-1,31,33,-1,-1,-1,-1,-1,35,-1,-1,-1,37,-1,-1],"loss_changes":[1.0119063E7,2.111053E6,3.9404218E6,2.32847E5,2.077656E5,1.1487711E6,1.037626E6,1.81361E5,0E0,0E0,8.017502E4,8.0085756E5,4.4668512E5,4.551605E5,0E0,0E0,0E0,0E0,0E0,0E0,5.0010638E5,0E0,1.1873197E4,2.453875E4,0E0,3.691715E5,6.0236156E4,0E0,0E0,0E0,0E0,0E0,7.97241E5,0E0,0E0,0E0,1.0032656E4,0E0,0E0],"parents":[2147483647,0,0,1,1,2,2,3,3,4,4,5,5,6,6,7,7,10,10,11,11,12,12,13,13,20,20,22,22,23,23,25,25,26,26,32,32,36,36],"right_children":[2,4,6,8,10,12,14,16,-1,-1,18,20,22,24,-1,-1,-1,-1,-1,-1,26,-1,28,30,-1,32,34,-1,-1,-1,-1,-1,36,-1,-1,-1,38,-1,-1],"split_conditions":[3.4E1,2.6E1,1.5E1,2.2E1,3E0,1.5E1,4.9E1,2.4E1,-6.138079E0,-7.7915344E0,8E0,1E0,2.6E1,2.2E1,-3.2010603E0,-4.607662E1,-4.190047E0,-1.9003366E0,1.0293551E1,2.599103E1,1E0,-2.1192202E1,3E1,2.1E1,5.4187183E1,3.8E1,2.7E1,-5.2789986E-1,4.580391E0,1.4281429E1,1.023238E0,1.998589E1,1.1E1,-1.3832833E1,1.0355707E-1,-1.4148445E1,1E1,2.0711808E0,1.3358202E1],"split_indices":[8,0,3,3,1,13,8,0,0,0,6,1,0,0,0,0,0,0,0,0,17,0,0,0,0,8,0,0,0,0,0,0,0,0,0,0,3,0,0],"split_type":[0,0,0,0,0,0,0,0,0,0,0,0,0,0,0,0,0,0,0,0,0,0,0,0,0,0,0,0,0,0,0,0,0,0,0,0,0,0,0],"sum_hessian":[1.36E2,5E1,8.6E1,3.7E1,1.3E1,5.8E1,2.8E1,3.2E1,5E0,5E0,8E0,4.1E1,1.7E1,2.5E1,3E0,2.9E1,3E0,3E0,5E0,7E0,3.4E1,1.1E1,6E0,1.1E1,1.4E1,2.5E1,9E0,3E0,3E0,8E0,3E0,3E0,2.2E1,6E0,3E0,9E0,1.3E1,5E0,8E0],"tree_param":{"num_deleted":"0","num_feature":"33","num_nodes":"39","size_leaf_vector":"1"}},{"base_weights":[6.3397106E1,4.3458142E2,-5.7150314E1,-2.9966091E1,5.748419E2,-1.4228914E2,3.2064566E2,-8.423393E0,4.820433E0,6.5430115E2,-2.2389991E0,-2.1955289E2,1.5778223E2,-9.447616E0,4.2323833E1,1.9100139E2,7.362239E1,-2.7317477E2,4.5862553E1,-5.3474464E1,2.4440517E2,-1.0798328E1,1.0492456E1,2.0813292E-2,2.1048193E1,6.9677475E1,-3.1996753E2,-3.8447773E1,1.1941625E1,-7.846225E0,1.7035767E0,2.4439579E1,2.8283002E0,9.918213E0,-2.1952493E0,-3.374428E2,9.677179E-1,-5.8603253E0,1.4112372E0,-3.47925E1,-9.7055046E1,-1.0877153E1,6.4782375E-1],"categories":[],"categories_nodes":[],"categories_segments":[],"categories_sizes":[],"default_left":[0,0,0,0,0,0,0,0,0,0,0,0,0,0,0,0,0,0,0,0,0,0,0,0,0,0,0,0,0,0,0,0,0,0,0,0,0,0,0,0,0,0,0],"id":17,"left_children":[1,3,5,7,9,11,13,-1,-1,15,-1,17,19,21,-1,23,-1,25,27,29,31,-1,-1,-1,-1,33,35,37,-1,-1,-1,-1,-1,-1,-1,39,-1,-1,-1,-1,41,-1,-1],"loss_changes":[6.705833E6,2.5470425E6,4.2163855E6,1.3340372E5,1.511409E6,2.7085275E6,1.1516092E6,0E0,0E0,2.22699E5,0E0,1.3376282E6,6.1102844E5,3.4465956E5,0E0,1.2841775E5,0E0,1.377303E6,2.0582067E5,5.009004E4,9.328625E3,0E0,0E0,0E0,0E0,8.250303E4,4.128375E5,3.413413E4,0E0,0E0,0E0,0E0,0E0,0E0,0E0,2.322675E5,0E0,0E0,0E0,0E0,5.4123516E4,0E0,0E0],"parents":[2147483647,0,0,1,1,2,2,3,3,4,4,5,5,6,6,9,9,11,11,12,12,13,13,15,15,17,17,18,18,19,19,20,20,25,25,26,26,27,27,35,35,40,40],"right_children":[2,4,6,8,10,12,14,-1,-1,16,-1,18,20,22,-1,24,-1,26,28,30,32,-1,-1,-1,-1,34,36,38,-1,-1,-1,-1,-1,-1,-1,40,-1,-1,-1,-1,42,-1,-1],"split_conditions":[3E0,1E0,6E0,3.6627E3,4.7E1,4.217489E3,3.6627E3,-8.423393E0,4.820433E0,9.6394806E2,-2.2389991E0,2.6E1,1.3E1,1.8E1,4.2323833E1,3.8E1,7.362239E1,5E0,4.1E1,2.52E1,1E0,-1.0798328E1,1.0492456E1,2.0813292E-2,2.1048193E1,9.6394806E2,4.4E1,3.2E1,1.1941625E1,-7.846225E0,1.7035767E0,2.4439579E1,2.8283002E0,9.918213E0,-2.1952493E0,4E0,9.677179E-1,-5.8603253E0,1.4112372E0,-3.47925E1,2.5E1,-1.0877153E1,6.4782375E-1],"split_indices":[6,27,1,10,8,10,10,0,0,11,0,0,0,0,0,8,0,0,8,12,25,0,0,0,0,11,8,0,0,0,0,0,0,0,0,1,0,0,0,0,12,0,0],"split_type":[0,0,0,0,0,0,0,0,0,0,0,0,0,0,0,0,0,0,0,0,0,0,0,0,0,0,0,0,0,0,0,0,0,0,0,0,0,0,0,0,0,0,0],"sum_hessian":[1.35E2,2.7E1,1.08E2,8E0,1.9E1,9.3E1,1.5E1,4E0,4E0,1.6E1,3E0,7.6E1,1.7E1,7E0,8E0,9E0,7E0,6.3E1,1.3E1,6E0,1.1E1,4E0,3E0,3E0,6E0,7E0,5.6E1,9E0,4E0,3E0,3E0,8E0,3E0,4E0,3E0,5.3E1,3E0,5E0,4E0,4.1E1,1.2E1,9E0,3E0],"tree_param":{"num_deleted":"0","num_feature":"33","num_nodes":"43","size_leaf_vector":"1"}},{"base_weights":[2.4110123E1,-2.5610278E2,1.7349002E2,-3.677011E2,-6.587895E1,5.300048E2,4.6429173E1,-1.1074951E0,-3.68917E1,1.2137609E1,-1.2835933E2,6.124139E2,-2.5711277E0,-2.6844486E1,3.4815086E1,-1.5060472E1,2.492025E0,6.9967475E0,6.0636692E1,1.23078094E2,-1.0721799E2,-1.3785975E1,2.1112193E2,-1.6893892E2,-4.7498592E1,2.8130746E2,-3.7850618E0,2.2851636E0,-2.1333105E1,-1.3451669E1,1.0796431E1,1.4419646E0,2.8930542E1,4.458559E1,-2.4421501E1,-9.187689E-2,4.8626823E0,-3.6114118E0,9.359866E-1],"categories":[],"categories_nodes":[],"categories_segments":[],"categories_sizes":[],"default_left":[0,0,0,0,0,0,0,0,0,0,0,0,0,0,0,0,0,0,0,0,0,0,0,0,0,0,0,0,0,0,0,0,0,0,0,0,0,0,0],"id":18,"left_children":[1,3,5,7,9,11,13,-1,-1,-1,15,17,-1,19,-1,-1,-1,-1,-1,21,23,-1,25,27,29,31,-1,-1,-1,-1,33,-1,-1,35,37,-1,-1,-1,-1],"loss_changes":[6.7677705E6,9.683285E5,4.499931E6,3.25129E5,5.6168706E5,1.384111E6,2.2138138E6,0E0,0E0,0E0,2.0027078E5,7.0146E4,0E0,1.0966055E6,0E0,0E0,0E0,0E0,0E0,1.0804448E6,1.3508606E5,0E0,6.15422E5,3.48066E5,2.5814519E5,1.4965675E5,0E0,0E0,0E0,0E0,5.2740344E4,0E0,0E0,8.437648E3,1.5720094E4,0E0,0E0,0E0,0E0],"parents":[2147483647,0,0,1,1,2,2,3,3,4,4,5,5,6,6,10,10,11,11,13,13,19,19,20,20,22,22,23,23,24,24,25,25,30,30,33,33,34,34],"right_children":[2,4,6,8,10,12,14,-1,-1,-1,16,18,-1,20,-1,-1,-1,-1,-1,22,24,-1,26,28,30,32,-1,-1,-1,-1,34,-1,-1,36,38,-1,-1,-1,-1],"split_conditions":[2.2E1,1E0,3E0,5E0,4E0,1E0,2.46E1,-1.1074951E0,-3.68917E1,1.2137609E1,1.2E1,1.08E1,-2.5711277E0,1.34E1,3.4815086E1,-1.5060472E1,2.492025E0,6.9967475E0,6.0636692E1,2E1,1E0,-1.3785975E1,2.53E1,3.7E1,7E0,8E0,-3.7850618E0,2.2851636E0,-2.1333105E1,-1.3451669E1,2.49E1,1.4419646E0,2.8930542E1,3.8E1,1.3E1,-9.187689E-2,4.8626823E0,-3.6114118E0,9.359866E-1],"split_indices":[8,27,6,3,6,24,15,0,0,0,3,15,0,15,0,0,0,0,0,12,27,0,12,8,6,3,0,0,0,0,12,0,0,8,6,0,0,0,0],"split_type":[0,0,0,0,0,0,0,0,0,0,0,0,0,0,0,0,0,0,0,0,0,0,0,0,0,0,0,0,0,0,0,0,0,0,0,0,0,0,0],"sum_hessian":[1.42E2,4.7E1,9.5E1,2.4E1,2.3E1,1.7E1,7.8E1,3E0,2.1E1,3E0,2E1,1.4E1,3E0,7.1E1,7E0,1.6E1,4E0,3E0,1.1E1,2.3E1,4.8E1,4E0,1.9E1,1.5E1,3.3E1,1.4E1,5E0,5E0,1E1,7E0,2.6E1,3E0,1.1E1,1.2E1,1.4E1,3E0,9E0,9E0,5E0],"tree_param":{"num_deleted":"0","num_feature":"33","num_nodes":"39","size_leaf_vector":"1"}},{"base_weights":[1.695599E1,-2.0585622E2,1.5860835E2,-2.7708322E2,1.436816E2,-1.1340235E1,3.3897342E2,9.376075E1,-3.3650015E2,-1.905235E0,1.9132025E1,-1.5109503E2,1.1304868E2,4.1193335E2,-1.0340785E1,-5.7802396E0,1.6540161E1,-3.796013E2,-4.3872677E1,-1.7928493E2,2.9926956E0,2.2189907E1,-6.49433E1,1.916855E1,4.917565E1,-3.998137E0,-3.8076935E1,-1.0447743E1,5.1786876E0,-2.0636518E1,1.4056588E0,6.4840164E1,-1.7381607E1,-8.833086E0,1.0619441E1,-2.655275E0,1.1074965E1],"categories":[],"categories_nodes":[],"categories_segments":[],"categories_sizes":[],"default_left":[0,0,0,0,0,0,0,0,0,0,0,0,0,0,0,0,0,0,0,0,0,0,0,0,0,0,0,0,0,0,0,0,0,0,0,0,0],"id":19,"left_children":[1,3,5,7,9,11,13,15,17,-1,-1,19,21,23,-1,-1,-1,25,27,29,-1,-1,31,33,-1,-1,-1,-1,-1,-1,-1,35,-1,-1,-1,-1,-1],"loss_changes":[5.378983E6,2.0373182E6,3.2114235E6,1.5918775E6,2.2310506E5,1.250562E6,2.102831E6,3.1357788E5,5.02948E5,0E0,0E0,2.2917119E5,1.0194506E6,2.0430465E6,0E0,0E0,0E0,3.093855E5,1.8155338E5,2.9307588E5,0E0,0E0,4.9242244E5,3.3008006E5,0E0,0E0,0E0,0E0,0E0,0E0,0E0,1.28241484E5,0E0,0E0,0E0,0E0,0E0],"parents":[2147483647,0,0,1,1,2,2,3,3,4,4,5,5,6,6,7,7,8,8,11,11,12,12,13,13,17,17,18,18,19,19,22,22,23,23,31,31],"right_children":[2,4,6,8,10,12,14,16,18,-1,-1,20,22,24,-1,-1,-1,26,28,30,-1,-1,32,34,-1,-1,-1,-1,-1,-1,-1,36,-1,-1,-1,-1,-1],"split_conditions":[3.5E1,3E1,4E0,3E0,5E0,2.7645305E-1,4.5E1,9.597231E2,2.6E1,-1.905235E0,1.9132025E1,4.5E1,1.31E1,3.6627E3,-1.0340785E1,-5.7802396E0,1.6540161E1,7E0,2.3319E3,3E1,2.9926956E0,2.2189907E1,1E0,1E1,4.917565E1,-3.998137E0,-3.8076935E1,-1.0447743E1,5.1786876E0,-2.0636518E1,1.4056588E0,4.1E1,-1.7381607E1,-8.833086E0,1.0619441E1,-2.655275E0,1.1074965E1],"split_indices":[8,0,1,3,1,7,8,11,0,0,0,8,15,10,0,0,0,0,10,0,0,0,1,3,0,0,0,0,0,0,0,8,0,0,0,0,0],"split_type":[0,0,0,0,0,0,0,0,0,0,0,0,0,0,0,0,0,0,0,0,0,0,0,0,0,0,0,0,0,0,0,0,0,0,0,0,0],"sum_hessian":[1.51E2,5.7E1,9.4E1,4.9E1,8E0,5.3E1,4.1E1,6E0,4.3E1,4E0,4E0,2.4E1,2.9E1,3.6E1,5E0,3E0,3E0,3.5E1,8E0,2.1E1,3E0,1.5E1,1.4E1,1.1E1,2.5E1,5E0,3E1,4E0,4E0,1.6E1,5E0,9E0,5E0,5E0,6E0,5E0,4E0],"tree_param":{"num_deleted":"0","num_feature":"33","num_nodes":"37","size_leaf_vector":"1"}},{"base_weights":[9.285834E0,-1.9574942E2,2.3046048E2,-2.9957886E2,1.847181E1,6.3475246E1,5.3085E2,-3.664892E2,-2.8565325E1,-6.321908E1,2.18271E1,-7.51289E0,2.7381113E2,7.2480615E2,1.4764672E1,4.763801E0,-4.0485754E2,1.20537254E2,-1.408673E1,-1.1069552E2,8.48628E0,-1.017027E2,1.8166777E2,-6.607258E-1,3.1559898E1,1.2537582E1,7.685982E1,1.520592E1,-1.145648E1,-2.4568899E0,-3.9360962E1,1.442186E0,1.2358919E1,-1.3618302E1,-1.3343366E0,-1.6199605E2,3.434971E1,-1.9307159E-2,1.9404219E1,-3.1820383E0,3.5026793E0,1.9377939E0,-1.8482523E1,-4.875042E1,9.847186E0,6.6177545E0,-6.3818045E0,-7.621469E0,1.538357E0],"categories":[],"categories_nodes":[],"categories_segments":[],"categories_sizes":[],"default_left":[0,0,0,0,0,0,0,0,0,0,0,0,0,0,0,0,0,0,0,0,0,0,0,0,0,0,0,0,0,0,0,0,0,0,0,0,0,0,0,0,0,0,0,0,0,0,0,0,0],"id":20,"left_children":[1,3,5,7,9,11,13,15,17,19,-1,21,23,25,27,-1,29,31,-1,33,-1,35,37,-1,-1,-1,-1,-1,-1,-1,-1,-1,-1,-1,39,41,43,-1,-1,-1,-1,45,-1,47,-1,-1,-1,-1,-1],"loss_changes":[7.8930015E6,2.0674312E6,3.868007E6,1.015404E6,8.2772656E5,9.83965E5,2.7542065E6,9.784095E5,5.913557E5,3.5856562E5,0E0,1.2017736E6,3.37191E5,2.07563E5,5.58513E5,0E0,2.473235E5,1.159E3,0E0,1.2388359E5,0E0,4.188272E5,1.16090125E5,0E0,0E0,0E0,0E0,0E0,0E0,0E0,0E0,0E0,0E0,0E0,3.5182434E4,2.058525E5,1.7879947E5,0E0,0E0,0E0,0E0,1.2391558E5,0E0,4.961457E4,0E0,0E0,0E0,0E0,0E0],"parents":[2147483647,0,0,1,1,2,2,3,3,4,4,5,5,6,6,7,7,8,8,9,9,11,11,12,12,13,13,14,14,16,16,17,17,19,19,21,21,22,22,34,34,35,35,36,36,41,41,43,43],"right_children":[2,4,6,8,10,12,14,16,18,20,-1,22,24,26,28,-1,30,32,-1,34,-1,36,38,-1,-1,-1,-1,-1,-1,-1,-1,-1,-1,-1,40,42,44,-1,-1,-1,-1,46,-1,48,-1,-1,-1,-1,-1],"split_conditions":[3.6627E3,2.5E1,1.9E1,3.7E1,6E0,6E0,4.3E1,2E0,2.56E1,4E1,2.18271E1,4.217489E3,1.1E1,4.037578E3,2.2E1,4.763801E0,5E0,6E0,-1.408673E1,4E0,8.48628E0,2.4E1,1E1,-6.607258E-1,3.1559898E1,1.2537582E1,7.685982E1,1.520592E1,-1.145648E1,-2.4568899E0,-3.9360962E1,1.442186E0,1.2358919E1,-1.3618302E1,3E1,1E0,4.1E1,-1.9307159E-2,1.9404219E1,-3.1820383E0,3.5026793E0,5E0,-1.8482523E1,3E0,9.847186E0,6.6177545E0,-6.3818045E0,-7.621469E0,1.538357E0],"split_indices":[10,0,3,8,1,1,8,3,12,8,0,10,6,10,0,0,0,0,0,1,0,0,0,0,0,0,0,0,0,0,0,0,0,0,0,1,8,0,0,0,0,3,0,1,0,0,0,0,0],"split_type":[0,0,0,0,0,0,0,0,0,0,0,0,0,0,0,0,0,0,0,0,0,0,0,0,0,0,0,0,0,0,0,0,0,0,0,0,0,0,0,0,0,0,0,0,0,0,0,0,0],"sum_hessian":[1.55E2,8.1E1,7.4E1,5.2E1,2.9E1,5.5E1,1.9E1,3.9E1,1.3E1,2.6E1,3E0,4.8E1,7E0,1.1E1,8E0,3E0,3.6E1,6E0,7E0,2.2E1,4E0,3.5E1,1.3E1,3E0,4E0,5E0,6E0,3E0,5E0,3E0,3.3E1,3E0,3E0,1.4E1,8E0,2.3E1,1.2E1,3E0,1E1,5E0,3E0,6E0,1.7E1,7E0,5E0,3E0,3E0,3E0,4E0],"tree_param":{"num_deleted":"0","num_feature":"33","num_nodes":"49","size_leaf_vector":"1"}},{"base_weights":[2.8996635E1,-1.0656597E2,2.6210364E2,-1.6774104E2,1.17293785E2,-2.9927946E1,3.1013483E2,-2.2452296E2,-1.1532225E1,-3.247399E1,1.8380068E1,1.2660228E1,-1.5119977E1,3.398542E2,-5.5690616E-1,5.032491E0,-2.6030432E2,-8.342598E0,7.239357E1,7.470019E0,-1.0078359E1,1.9868555E0,3.661548E2,3.7822318E0,-2.6449572E1,8.36752E0,9.8688135E0,3.6873028E1,-8.770854E-1,2.716625E0,-1.7013096E0],"categories":[],"categories_nodes":[],"categories_segments":[],"categories_sizes":[],"default_left":[0,0,0,0,0,0,0,0,0,0,0,0,0,0,0,0,0,0,0,0,0,0,0,0,0,0,0,0,0,0,0],"id":21,"left_children":[1,3,5,7,9,11,13,15,17,19,-1,-1,-1,21,-1,-1,23,-1,25,-1,-1,-1,27,-1,-1,29,-1,-1,-1,-1,-1],"loss_changes":[4.8033025E6,1.5239028E6,8.683455E5,6.8929425E5,3.8564775E5,5.823127E5,4.76341E5,7.19988E5,2.706626E5,2.3606619E5,0E0,0E0,0E0,2.97199E5,0E0,0E0,5.256145E5,0E0,3.6382977E4,0E0,0E0,0E0,5.31453E5,0E0,0E0,1.5042325E4,0E0,0E0,0E0,0E0,0E0],"parents":[2147483647,0,0,1,1,2,2,3,3,4,4,5,5,6,6,7,7,8,8,9,9,13,13,16,16,18,18,22,22,25,25],"right_children":[2,4,6,8,10,12,14,16,18,20,-1,-1,-1,22,-1,-1,24,-1,26,-1,-1,-1,28,-1,-1,30,-1,-1,-1,-1,-1],"split_conditions":[4.037578E3,2.1E1,2E1,2.7E1,3.5025334E3,1.62E1,1.6E1,5E0,4E0,2.03E1,1.8380068E1,1.2660228E1,-1.5119977E1,1E1,-5.5690616E-1,5.032491E0,3E0,-8.342598E0,9.6394806E2,7.470019E0,-1.0078359E1,1.9868555E0,2.5E1,3.7822318E0,-2.6449572E1,6E0,9.8688135E0,3.6873028E1,-8.770854E-1,2.716625E0,-1.7013096E0],"split_indices":[10,3,12,0,10,12,15,0,1,12,0,0,0,0,0,0,3,0,11,0,0,0,12,0,0,1,0,0,0,0,0],"split_type":[0,0,0,0,0,0,0,0,0,0,0,0,0,0,0,0,0,0,0,0,0,0,0,0,0,0,0,0,0,0,0],"sum_hessian":[1.34E2,8.8E1,4.6E1,7.1E1,1.7E1,7E0,3.9E1,4.9E1,2.2E1,8E0,9E0,3E0,4E0,3.5E1,4E0,5E0,4.4E1,1.1E1,1.1E1,3E0,5E0,4E0,3.1E1,3E0,4.1E1,8E0,3E0,2.8E1,3E0,4E0,4E0],"tree_param":{"num_deleted":"0","num_feature":"33","num_nodes":"31","size_leaf_vector":"1"}},{"base_weights":[7.7721534E0,-2.3502802E2,1.355945E2,-3.1658352E1,-5.4454937E1,-3.7046577E1,3.790718E2,1.1072357E2,-1.695749E2,1.4546559E1,-6.937742E1,7.2434906E1,4.6306644E2,-5.545018E0,1.7636555E2,-1.7410625E1,-9.111938E-1,-1.6224783E2,-1.6372864E1,-1.8274632E1,1.0987113E1,1.13590706E2,4.857212E1,1.8098671E1,1.9587845E0,2.271187E0,-2.0545485E1,-1.2446687E2,7.782288E1,7.3367276E0,-9.445068E0,1.764496E1,-4.0232477E0,3.6193007E-1,-1.2991743E1,1.3488107E2,-6.540007E1,1.728838E1,-6.800011E0,-9.161467E0,1.0836287E0],"categories":[],"categories_nodes":[],"categories_segments":[],"categories_sizes":[],"default_left":[0,0,0,0,0,0,0,0,0,0,0,0,0,0,0,0,0,0,0,0,0,0,0,0,0,0,0,0,0,0,0,0,0,0,0,0,0,0,0,0,0],"id":22,"left_children":[1,3,5,-1,7,9,11,13,15,-1,17,19,21,-1,23,-1,-1,25,27,29,-1,31,-1,-1,-1,-1,-1,33,35,-1,-1,-1,-1,-1,-1,37,39,-1,-1,-1,-1],"loss_changes":[5.3489435E6,9.7426575E5,4.865704E6,0E0,8.173857E5,5.7235856E5,9.033565E5,3.2020622E5,5.2065375E4,0E0,3.2158122E5,1.1151284E5,1.999175E5,0E0,9.582375E3,0E0,0E0,3.26995E5,6.582025E5,2.0460823E5,0E0,2.9224572E5,0E0,0E0,0E0,0E0,0E0,6.6143625E4,3.7488956E5,0E0,0E0,0E0,0E0,0E0,0E0,4.4093203E5,5.4181555E4,0E0,0E0,0E0,0E0],"parents":[2147483647,0,0,1,1,2,2,4,4,5,5,6,6,7,7,8,8,10,10,11,11,12,12,14,14,17,17,18,18,19,19,21,21,27,27,28,28,35,35,36,36],"right_children":[2,4,6,-1,8,10,12,14,16,-1,18,20,22,-1,24,-1,-1,26,28,30,-1,32,-1,-1,-1,-1,-1,34,36,-1,-1,-1,-1,-1,-1,38,40,-1,-1,-1,-1],"split_conditions":[3E0,1E0,1.5E1,-3.1658352E1,2.03E1,1.51E1,3.6627E3,6E0,1.7E1,1.4546559E1,1E0,2.2E1,2.06E1,-5.545018E0,1E1,-1.7410625E1,-9.111938E-1,3.7E1,4E1,1.39E1,1.0987113E1,1.49E1,4.857212E1,1.8098671E1,1.9587845E0,2.271187E0,-2.0545485E1,9.3E0,1.6E1,7.3367276E0,-9.445068E0,1.764496E1,-4.0232477E0,3.6193007E-1,-1.2991743E1,4.4E1,4.4E1,1.728838E1,-6.800011E0,-9.161467E0,1.0836287E0],"split_indices":[9,27,3,0,12,12,10,3,8,0,27,3,12,0,6,0,0,8,8,13,0,13,0,0,0,0,0,13,6,0,0,0,0,0,0,8,8,0,0,0,0],"split_type":[0,0,0,0,0,0,0,0,0,0,0,0,0,0,0,0,0,0,0,0,0,0,0,0,0,0,0,0,0,0,0,0,0,0,0,0,0,0,0,0,0],"sum_hessian":[1.53E2,5E1,1.03E2,2.6E1,2.4E1,6.5E1,3.8E1,1E1,1.4E1,4E0,6.1E1,1.2E1,2.6E1,3E0,7E0,1.1E1,3E0,1.5E1,4.6E1,6E0,6E0,8E0,1.8E1,4E0,3E0,5E0,1E1,2E1,2.6E1,3E0,3E0,4E0,4E0,3E0,1.7E1,1.9E1,7E0,1.6E1,3E0,3E0,4E0],"tree_param":{"num_deleted":"0","num_feature":"33","num_nodes":"41","size_leaf_vector":"1"}},{"base_weights":[3.9515713E1,4.2169318E2,-7.0811455E1,5.121215E2,-9.01087E0,-1.3222665E2,3.073343E2,1.5071722E2,6.5575165E1,3.9290016E0,-4.975608E0,-2.411875E2,-1.7361101E1,-1.2794358E0,3.635736E1,2.2309122E1,-3.51542E0,-2.6538333E2,4.5596685E0,-7.628829E1,1.4990529E2,-2.8892395E2,-4.3075974E1,-1.0515816E2,1.0411742E1,-8.0707866E-1,1.9091196E1,-3.197374E1,-1.2578589E2,1.5392318E0,-6.30518E0,4.0975814E0,-1.3568912E2,6.1272154E0,-3.0416843E1,-1.7734526E1,1.6007689E1,1.1339231E1,-1.0064725E1,-1.5202843E1,3.4405394E0,-3.8803673E0,7.204079E-1,6.303075E0,-3.6387084E0],"categories":[],"categories_nodes":[],"categories_segments":[],"categories_sizes":[],"default_left":[0,0,0,0,0,0,0,0,0,0,0,0,0,0,0,0,0,0,0,0,0,0,0,0,0,0,0,0,0,0,0,0,0,0,0,0,0,0,0,0,0,0,0,0,0],"id":23,"left_children":[1,3,5,7,9,11,13,15,-1,-1,-1,17,19,-1,-1,-1,-1,21,-1,23,25,27,29,31,33,-1,-1,-1,35,-1,-1,37,39,-1,41,-1,43,-1,-1,-1,-1,-1,-1,-1,-1],"loss_changes":[6.718033E6,1.429612E6,3.3267455E6,1.079716E6,5.7692117E4,1.4057319E6,6.183696E5,4.7289553E5,0E0,0E0,0E0,5.368515E5,7.650282E5,0E0,0E0,0E0,0E0,1.7122675E5,0E0,1.496769E5,2.0170556E5,3.327125E4,3.5723914E4,1.474904E5,7.070922E4,0E0,0E0,0E0,2.872239E5,0E0,0E0,3.7556928E5,2.2489012E5,0E0,1.1798494E4,0E0,7.6290695E4,0E0,0E0,0E0,0E0,0E0,0E0,0E0,0E0],"parents":[2147483647,0,0,1,1,2,2,3,3,4,4,5,5,6,6,7,7,11,11,12,12,17,17,19,19,20,20,21,21,22,22,23,23,24,24,28,28,31,31,32,32,34,34,36,36],"right_children":[2,4,6,8,10,12,14,16,-1,-1,-1,18,20,-1,-1,-1,-1,22,-1,24,26,28,30,32,34,-1,-1,-1,36,-1,-1,38,40,-1,42,-1,44,-1,-1,-1,-1,-1,-1,-1,-1],"split_conditions":[3E0,1.48E1,6E0,1.0850863E3,9.597231E2,1.6E1,1.45E1,2.8E1,6.5575165E1,3.9290016E0,-4.975608E0,8.1E0,4.217489E3,-1.2794358E0,3.635736E1,2.2309122E1,-3.51542E0,1E0,4.5596685E0,4E0,1E1,1E0,9E0,1.22E1,2.3319E3,-8.0707866E-1,1.9091196E1,-3.197374E1,1.21E1,1.5392318E0,-6.30518E0,2E0,4.037578E3,6.1272154E0,5E0,-1.7734526E1,9.5E0,1.1339231E1,-1.0064725E1,-1.5202843E1,3.4405394E0,-3.8803673E0,7.204079E-1,6.303075E0,-3.6387084E0],"split_indices":[6,15,1,11,11,0,15,0,0,0,0,14,10,0,0,0,0,17,0,1,3,27,0,15,10,0,0,0,15,0,0,1,10,0,1,0,13,0,0,0,0,0,0,0,0],"split_type":[0,0,0,0,0,0,0,0,0,0,0,0,0,0,0,0,0,0,0,0,0,0,0,0,0,0,0,0,0,0,0,0,0,0,0,0,0,0,0,0,0,0,0,0,0],"sum_hessian":[1.43E2,2.6E1,1.17E2,2E1,6E0,1.06E2,1.1E1,1.3E1,7E0,3E0,3E0,4.9E1,5.7E1,4E0,7E0,7E0,6E0,4.6E1,3E0,4.6E1,1.1E1,3.9E1,7E0,3.3E1,1.3E1,5E0,6E0,2.1E1,1.8E1,3E0,4E0,9E0,2.4E1,3E0,1E1,1E1,8E0,4E0,5E0,2.1E1,3E0,7E0,3E0,3E0,5E0],"tree_param":{"num_deleted":"0","num_feature":"33","num_nodes":"45","size_leaf_vector":"1"}},{"base_weights":[2.9412727E1,-1.8669835E2,1.5765129E2,-2.5478088E2,1.2252723E2,4.064609E1,3.5505997E2,-2.9968151E1,-2.2361261E1,1.744836E1,-4.3659043E0,-5.352996E1,1.9307939E2,4.1412357E1,-1.5120691E1,-8.159757E1,8.027276E0,-9.70431E1,7.8429146E1,-4.7151066E1,2.4994421E1,-5.676973E0,3.536843E0,-8.794384E0,-1.4645939E-1,4.1977587E0,-1.21826515E2,1.1497364E1,-2.4013379E0,9.734134E0,-1.5152048E1,-1.3650536E2,3.2307288E-1,-1.3802149E1,1.1001167E-1],"categories":[],"categories_nodes":[],"categories_segments":[],"categories_sizes":[],"default_left":[0,0,0,0,0,0,0,0,0,0,0,0,0,0,0,0,0,0,0,0,0,0,0,0,0,0,0,0,0,0,0,0,0,0,0],"id":24,"left_children":[1,3,5,7,9,11,13,-1,15,-1,-1,17,19,-1,21,23,-1,25,27,29,-1,-1,-1,-1,-1,-1,31,-1,-1,-1,-1,33,-1,-1,-1],"loss_changes":[4.5364825E6,1.5941802E6,2.2070188E6,7.9142025E5,2.8219403E5,1.1691742E6,1.318907E6,0E0,2.1340562E5,0E0,0E0,3.8020178E5,6.881575E5,0E0,6.3297133E4,1.9462195E4,0E0,2.101929E5,1.1981796E5,4.4115606E5,0E0,0E0,0E0,0E0,0E0,0E0,7.939669E4,0E0,0E0,0E0,0E0,6.592431E4,0E0,0E0,0E0],"parents":[2147483647,0,0,1,1,2,2,3,3,4,4,5,5,6,6,8,8,11,11,12,12,14,14,15,15,17,17,18,18,19,19,26,26,31,31],"right_children":[2,4,6,8,10,12,14,-1,16,-1,-1,18,20,-1,22,24,-1,26,28,30,-1,-1,-1,-1,-1,-1,32,-1,-1,-1,-1,34,-1,-1,-1],"split_conditions":[3E0,1E0,1E0,2.6E1,2.03E1,1.9E1,2.49E1,-2.9968151E1,1E0,1.744836E1,-4.3659043E0,4.217489E3,2.17E1,4.1412357E1,2.51E1,3.1E1,8.027276E0,6E0,9E0,4.037578E3,2.4994421E1,-5.676973E0,3.536843E0,-8.794384E0,-1.4645939E-1,4.1977587E0,1.5E1,1.1497364E1,-2.4013379E0,9.734134E0,-1.5152048E1,3.1E1,3.2307288E-1,-1.3802149E1,1.1001167E-1],"split_indices":[9,25,2,0,12,3,12,0,2,0,0,10,12,0,12,0,0,0,3,10,0,0,0,0,0,0,3,0,0,0,0,0,0,0,0],"split_type":[0,0,0,0,0,0,0,0,0,0,0,0,0,0,0,0,0,0,0,0,0,0,0,0,0,0,0,0,0,0,0,0,0,0,0],"sum_hessian":[1.44E2,5.2E1,9.2E1,4.4E1,8E0,6.5E1,2.7E1,3.1E1,1.3E1,5E0,3E0,4.4E1,2.1E1,2E1,7E0,1E1,3E0,3.5E1,9E0,6E0,1.5E1,3E0,4E0,7E0,3E0,4E0,3.1E1,5E0,4E0,3E0,3E0,2.7E1,4E0,2.4E1,3E0],"tree_param":{"num_deleted":"0","num_feature":"33","num_nodes":"35","size_leaf_vector":"1"}},{"base_weights":[4.51879E1,-7.105938E1,2.1162965E2,-1.280342E2,2.3739655E2,7.813905E1,4.1793527E2,-2.0562053E2,-3.421751E1,2.4239887E1,2.4094567E0,-2.3254704E1,3.250186E1,5.390995E2,-9.9200326E-1,-2.3660591E2,-2.5561113E1,3.74919E1,-9.978552E1,-1.6851204E1,4.8814476E1,4.9985018E-1,5.907269E1,-2.4081063E0,-2.287796E1,-1.4820081E1,9.919096E0,-1.7577827E1,1.139367E1,4.072375E0,-1.812195E1,-1.895288E1,9.3105E1,-5.9934082E1,6.3166137E0,-5.216491E1,5.3717833E0,5.8719125E0,-6.057888E1,1.2558719E2,-2.2233522E0,-1.0078616E2,2.900595E0,2.5199766E0,-8.240411E0,2.1797194E0,-8.75299E0,-5.5658424E-1,1.5626257E1,-1.1158437E1,3.2137185E-2],"categories":[],"categories_nodes":[],"categories_segments":[],"categories_sizes":[],"default_left":[0,0,0,0,0,0,0,0,0,0,0,0,0,0,0,0,0,0,0,0,0,0,0,0,0,0,0,0,0,0,0,0,0,0,0,0,0,0,0,0,0,0,0,0,0,0,0,0,0,0,0],"id":25,"left_children":[1,3,5,7,9,11,13,15,17,-1,-1,19,-1,21,-1,23,25,27,29,-1,31,-1,-1,-1,-1,-1,-1,33,-1,35,-1,37,39,41,-1,43,-1,-1,45,47,-1,49,-1,-1,-1,-1,-1,-1,-1,-1,-1],"loss_changes":[3.1148268E6,2.0044306E6,1.4924305E6,5.769029E5,3.0935125E4,1.5067948E6,1.2793512E6,2.0146212E5,2.7822512E5,0E0,0E0,6.183265E5,0E0,9.511275E5,0E0,2.50425E4,4.7799647E5,1.6974542E5,3.0299512E5,0E0,1.3569886E5,0E0,0E0,0E0,0E0,0E0,0E0,1.3926792E5,0E0,1.0046E5,0E0,1.1752805E5,1.262368E5,1.1814149E5,0E0,7.181479E4,0E0,0E0,8.0302625E4,1.3294425E5,0E0,3.785725E4,0E0,0E0,0E0,0E0,0E0,0E0,0E0,0E0,0E0],"parents":[2147483647,0,0,1,1,2,2,3,3,4,4,5,5,6,6,7,7,8,8,11,11,13,13,15,15,16,16,17,17,18,18,20,20,27,27,29,29,31,31,32,32,33,33,35,35,38,38,39,39,41,41],"right_children":[2,4,6,8,10,12,14,16,18,-1,-1,20,-1,22,-1,24,26,28,30,-1,32,-1,-1,-1,-1,-1,-1,34,-1,36,-1,38,40,42,-1,44,-1,-1,46,48,-1,50,-1,-1,-1,-1,-1,-1,-1,-1,-1],"split_conditions":[4E0,4.5E1,4E0,3.8E1,1.46E1,2.26E1,2.35E1,6.514391E-1,4.1E1,2.4239887E1,2.4094567E0,2.02E1,3.250186E1,9.2E0,-9.9200326E-1,5.7432618E-2,9.5E0,7.514773E-1,1E-1,-1.6851204E1,3.9E1,4.9985018E-1,5.907269E1,-2.4081063E0,-2.287796E1,-1.4820081E1,9.919096E0,3E0,1.139367E1,2E0,-1.812195E1,1.4E1,2.3965104E-1,1.46E1,6.3166137E0,4.3E1,5.3717833E0,5.8719125E0,5E0,1.0170139E-1,-2.2233522E0,4.037578E3,2.900595E0,2.5199766E0,-8.240411E0,2.1797194E0,-8.75299E0,-5.5658424E-1,1.5626257E1,-1.1158437E1,3.2137185E-2],"split_indices":[1,8,4,8,15,15,12,7,8,0,0,12,0,15,0,7,15,7,14,0,8,0,0,0,0,0,0,4,0,1,0,8,7,15,0,8,0,0,1,7,0,10,0,0,0,0,0,0,0,0,0],"split_type":[0,0,0,0,0,0,0,0,0,0,0,0,0,0,0,0,0,0,0,0,0,0,0,0,0,0,0,0,0,0,0,0,0,0,0,0,0,0,0,0,0,0,0,0,0,0,0,0,0,0,0],"sum_hessian":[1.44E2,8.8E1,5.6E1,7.9E1,9E0,4.2E1,1.4E1,3.7E1,4.2E1,6E0,3E0,3.7E1,5E0,9E0,5E0,2.9E1,8E0,2.2E1,2E1,7E0,3E1,3E0,6E0,3E0,2.6E1,3E0,5E0,1.8E1,4E0,1.4E1,6E0,1.4E1,1.6E1,1.4E1,4E0,7E0,7E0,3E0,1.1E1,1.2E1,4E0,9E0,5E0,3E0,4E0,4E0,7E0,5E0,7E0,6E0,3E0],"tree_param":{"num_deleted":"0","num_feature":"33","num_nodes":"51","size_leaf_vector":"1"}},{"base_weights":[5.0968254E1,-1.6099734E2,1.755278E2,-2.3183539E2,9.142822E1,6.739028E1,4.0925757E2,3.0141482E-1,-2.4704199E2,-9.605286E0,1.9865707E2,1.4121208E2,-1.3625925E2,-6.3866286E0,5.595026E2,-1.0619205E0,-2.4060017E1,2.9997892E1,-5.3269753E0,2.337115E1,2.4338779E2,3.637943E-1,-1.4410835E1,4.858419E0,-4.9151173E0,5.9820457E1,-1.8035549E-1,-6.5981575E1,1.2272162E2,2.9696112E2,1.6885967E1,1.1817355E0,-8.461913E1,1.4532826E1,1.062989E1,2.922611E1,3.2550259E0,-6.19109E0,7.6547885E0,-1.1042724E1,1.3976918E0,-7.23879E-1,1.9560438E0],"categories":[],"categories_nodes":[],"categories_segments":[],"categories_sizes":[],"default_left":[0,0,0,0,0,0,0,0,0,0,0,0,0,0,0,0,0,0,0,0,0,0,0,0,0,0,0,0,0,0,0,0,0,0,0,0,0,0,0,0,0,0,0],"id":26,"left_children":[1,3,5,7,9,11,13,-1,15,-1,17,19,21,23,25,-1,-1,-1,-1,27,29,-1,-1,-1,-1,-1,-1,31,33,35,37,-1,39,-1,41,-1,-1,-1,-1,-1,-1,-1,-1],"loss_changes":[4.3767895E6,1.321166E6,2.3276622E6,1.924365E5,6.2746856E5,1.4097696E6,1.942967E6,0E0,1.204045E5,0E0,7.1170094E5,7.2238875E5,7.884294E4,7.498759E4,1.117335E6,0E0,0E0,0E0,0E0,4.3740838E5,3.5863275E5,0E0,0E0,0E0,0E0,0E0,0E0,5.0898133E4,7.0662E4,2.5188E4,1.4429597E5,0E0,9.906508E4,0E0,4.623517E3,0E0,0E0,0E0,0E0,0E0,0E0,0E0,0E0],"parents":[2147483647,0,0,1,1,2,2,3,3,4,4,5,5,6,6,8,8,10,10,11,11,12,12,13,13,14,14,19,19,20,20,27,27,28,28,29,29,30,30,32,32,34,34],"right_children":[2,4,6,8,10,12,14,-1,16,-1,18,20,22,24,26,-1,-1,-1,-1,28,30,-1,-1,-1,-1,-1,-1,32,34,36,38,-1,40,-1,42,-1,-1,-1,-1,-1,-1,-1,-1],"split_conditions":[3E0,1E0,5E0,1.28E1,9.597231E2,1.0850863E3,9.597231E2,3.0141482E-1,6.5E0,-9.605286E0,4E0,1.5E1,4E1,8E0,4.4E1,-1.0619205E0,-2.4060017E1,2.9997892E1,-5.3269753E0,1.46E1,2.56E1,3.637943E-1,-1.4410835E1,4.858419E0,-4.9151173E0,5.9820457E1,-1.8035549E-1,1E0,8E0,2.8E1,2.2E1,1.1817355E0,1.2E1,1.4532826E1,1.2E1,2.922611E1,3.2550259E0,-6.19109E0,7.6547885E0,-1.1042724E1,1.3976918E0,-7.23879E-1,1.9560438E0],"split_indices":[9,25,1,12,11,11,11,0,15,0,6,3,8,6,8,0,0,0,0,15,12,0,0,0,0,0,0,1,3,3,3,0,6,0,3,0,0,0,0,0,0,0,0],"split_type":[0,0,0,0,0,0,0,0,0,0,0,0,0,0,0,0,0,0,0,0,0,0,0,0,0,0,0,0,0,0,0,0,0,0,0,0,0,0,0,0,0,0,0],"sum_hessian":[1.46E2,5.3E1,9.3E1,4.2E1,1.1E1,7.2E1,2.1E1,3E0,3.9E1,4E0,7E0,5.5E1,1.7E1,8E0,1.3E1,3E0,3.6E1,3E0,4E0,3.1E1,2.4E1,3E0,1.4E1,3E0,5E0,1E1,3E0,1.8E1,1.3E1,1.7E1,7E0,4E0,1.4E1,7E0,6E0,1.4E1,3E0,3E0,4E0,9E0,5E0,3E0,3E0],"tree_param":{"num_deleted":"0","num_feature":"33","num_nodes":"43","size_leaf_vector":"1"}},{"base_weights":[8.526662E1,3.289769E2,-1.6255268E1,4.910631E1,4.9299368E2,-1.6346407E2,8.661837E1,-4.1840015E1,1.3963382E1,5.721643E2,-4.5779743E0,-2.651949E2,3.914211E1,2.6346825E1,2.0408104E2,-1.0685741E1,3.3420185E1,6.1999752E1,4.7350836E0,-2.6983892E1,8.7635756E-1,-1.5925833E1,7.6155396E1,1.6531755E2,-1.5542436E1,-2.629901E0,2.2860275E1,7.677527E0,-3.9992065E0,-2.6374493E0,1.0766292E0,2.921669E-2,8.45967E0,-8.325635E-1,1.9793722E1,-8.829396E1,6.15772E1,-1.0248628E2,-2.1868815E-1,-8.397548E0,1.18693756E2,-5.9364057E-1,-1.111856E1,1.6460582E2,-4.4405885E0,1.7953598E1,-1.0300326E0],"categories":[],"categories_nodes":[],"categories_segments":[],"categories_sizes":[],"default_left":[0,0,0,0,0,0,0,0,0,0,0,0,0,0,0,0,0,0,0,0,0,0,0,0,0,0,0,0,0,0,0,0,0,0,0,0,0,0,0,0,0,0,0,0,0,0,0],"id":27,"left_children":[1,3,5,7,9,11,13,15,-1,17,-1,19,21,23,25,-1,27,-1,-1,-1,-1,29,31,33,35,-1,-1,-1,-1,-1,-1,-1,-1,-1,-1,37,39,41,-1,-1,43,-1,-1,45,-1,-1,-1],"loss_changes":[4.0982E6,1.996398E6,2.0215362E6,3.2497588E5,1.540553E6,1.2239029E6,5.1140412E5,1.620707E5,0E0,1.027925E6,0E0,3.0047675E5,6.581126E4,3.9476844E5,3.2330288E5,0E0,1.0484514E5,0E0,0E0,0E0,0E0,9.637274E3,1.9916305E4,1.5070238E5,3.7486097E5,0E0,0E0,0E0,0E0,0E0,0E0,0E0,0E0,0E0,0E0,3.8404594E4,3.949231E5,4.0981156E4,0E0,0E0,2.9419328E5,0E0,0E0,1.4820531E5,0E0,0E0,0E0],"parents":[2147483647,0,0,1,1,2,2,3,3,4,4,5,5,6,6,7,7,9,9,11,11,12,12,13,13,14,14,16,16,21,21,22,22,23,23,24,24,35,35,36,36,37,37,40,40,43,43],"right_children":[2,4,6,8,10,12,14,16,-1,18,-1,20,22,24,26,-1,28,-1,-1,-1,-1,30,32,34,36,-1,-1,-1,-1,-1,-1,-1,-1,-1,-1,38,40,42,-1,-1,44,-1,-1,46,-1,-1,-1],"split_conditions":[5E0,9.6394806E2,3.3E1,4E1,1.46E1,2.3E1,1.5E1,4E0,1.3963382E1,4.3E1,-4.5779743E0,4.6E0,9.1941376E2,5E0,2E1,-1.0685741E1,2.13E1,6.1999752E1,4.7350836E0,-2.6983892E1,8.7635756E-1,3.2E1,2.7E1,3E0,4.1E1,-2.629901E0,2.2860275E1,7.677527E0,-3.9992065E0,-2.6374493E0,1.0766292E0,2.921669E-2,8.45967E0,-8.325635E-1,1.9793722E1,3.1E1,1.21E1,9.597231E2,-2.1868815E-1,-8.397548E0,4.4E1,-5.9364057E-1,-1.111856E1,1.54E1,-4.4405885E0,1.7953598E1,-1.0300326E0],"split_indices":[6,11,8,8,15,0,3,3,0,8,0,14,11,0,12,0,12,0,0,0,0,0,0,0,8,0,0,0,0,0,0,0,0,0,0,0,15,11,0,0,8,0,0,13,0,0,0],"split_type":[0,0,0,0,0,0,0,0,0,0,0,0,0,0,0,0,0,0,0,0,0,0,0,0,0,0,0,0,0,0,0,0,0,0,0,0,0,0,0,0,0,0,0,0,0,0,0],"sum_hessian":[1.54E2,3.9E1,1.15E2,1.9E1,2E1,4.5E1,7E1,1.3E1,6E0,1.7E1,3E0,2.8E1,1.7E1,5.4E1,1.6E1,4E0,9E0,1.2E1,5E0,2.5E1,3E0,9E0,8E0,6E0,4.8E1,3E0,1.3E1,5E0,4E0,6E0,3E0,3E0,5E0,3E0,3E0,2.4E1,2.4E1,1.9E1,5E0,5E0,1.9E1,5E0,1.4E1,1.5E1,4E0,1.2E1,3E0],"tree_param":{"num_deleted":"0","num_feature":"33","num_nodes":"47","size_leaf_vector":"1"}},{"base_weights":[3.8491913E1,-5.6468185E1,1.738308E2,-1.1630723E2,1.4450977E2,1.7652517E1,2.8403836E2,5.6130173E1,-1.6188686E2,1.7007385E1,1.2143017E1,-3.912028E1,1.06980576E2,8.596126E0,3.3525208E1,1.4437254E1,-6.3417687E0,3.1207108E0,-1.790297E2,-5.957593E0,6.9026666E0,1.05125206E2,-1.1535307E1,8.5414606E-1,1.1187366E1,-7.6517305E0,1.0669975E1,-2.1066031E2,-4.5469162E1,4.255581E-1,1.2350067E1,-2.2579294E2,-1.0340194E0,-7.963024E0,5.4322295E0,-1.4678893E0,-2.3698782E2,-2.455149E1,-3.6117876E0],"categories":[],"categories_nodes":[],"categories_segments":[],"categories_sizes":[],"default_left":[0,0,0,0,0,0,0,0,0,0,0,0,0,0,0,0,0,0,0,0,0,0,0,0,0,0,0,0,0,0,0,0,0,0,0,0,0,0,0],"id":28,"left_children":[1,3,5,7,9,11,13,15,17,-1,19,21,23,25,-1,-1,-1,-1,27,-1,-1,29,-1,-1,-1,-1,-1,31,33,-1,-1,35,-1,-1,-1,-1,37,-1,-1],"loss_changes":[2.1573182E6,1.3817325E6,1.1314336E6,7.436495E5,1.2182144E5,2.3559802E5,8.23578E5,4.083112E5,2.8784112E5,0E0,1.2507466E5,5.023855E5,1.30441875E4,2.7202403E5,0E0,0E0,0E0,0E0,1.807415E5,0E0,0E0,4.1104562E4,0E0,0E0,0E0,0E0,0E0,1.2502575E5,1.5223264E5,0E0,0E0,7.065525E4,0E0,0E0,0E0,0E0,1.39934E5,0E0,0E0],"parents":[2147483647,0,0,1,1,2,2,3,3,4,4,5,5,6,6,7,7,8,8,10,10,11,11,12,12,13,13,18,18,21,21,27,27,28,28,31,31,36,36],"right_children":[2,4,6,8,10,12,14,16,18,-1,20,22,24,26,-1,-1,-1,-1,28,-1,-1,30,-1,-1,-1,-1,-1,32,34,-1,-1,36,-1,-1,-1,-1,38,-1,-1],"split_conditions":[4E0,4.217489E3,3.6627E3,3E0,1E1,2.8E1,2E0,2.6E1,9.9E0,1.7007385E1,2E0,5E0,5E0,1.46E1,3.3525208E1,1.4437254E1,-6.3417687E0,3.1207108E0,2.4E1,-5.957593E0,6.9026666E0,3E0,-1.1535307E1,8.5414606E-1,1.1187366E1,-7.6517305E0,1.0669975E1,2.45E1,4.037578E3,4.255581E-1,1.2350067E1,4E0,-1.0340194E0,-7.963024E0,5.4322295E0,-1.4678893E0,1E0,-2.455149E1,-3.6117876E0],"split_indices":[1,10,10,6,6,0,4,0,15,0,1,1,1,15,0,0,0,0,0,0,0,4,0,0,0,0,0,15,10,0,0,6,0,0,0,0,17,0,0],"split_type":[0,0,0,0,0,0,0,0,0,0,0,0,0,0,0,0,0,0,0,0,0,0,0,0,0,0,0,0,0,0,0,0,0,0,0,0,0,0,0],"sum_hessian":[1.51E2,9.2E1,5.9E1,7.4E1,1.8E1,2.9E1,3E1,1.5E1,5.9E1,1.1E1,7E0,2.1E1,8E0,9E0,2.1E1,7E0,8E0,4E0,5.5E1,3E0,4E0,7E0,1.4E1,3E0,5E0,6E0,3E0,4E1,1.5E1,4E0,3E0,3.6E1,4E0,1.2E1,3E0,3E0,3.3E1,2.6E1,7E0],"tree_param":{"num_deleted":"0","num_feature":"33","num_nodes":"39","size_leaf_vector":"1"}},{"base_weights":[3.4144962E1,-5.4574093E1,2.0264014E2,-1.667731E2,4.1585182E1,-1.3075084E1,4.9178436E2,-2.345454E2,-4.5848495E1,1.606215E2,-1.012813E1,-1.3889034E2,7.400036E1,5.3615692E1,6.223865E2,-2.3828112E1,1.6137137E-1,3.9442627E1,-1.2082955E1,1.8700346E1,3.8667877E1,-1.0540257E2,1.1319997E2,-1.5845894E1,1.3471628E0,-8.073548E0,1.4191415E2,1.5417219E1,-8.209098E0,6.371266E1,5.6485763E0,9.3707985E1,-7.3332615E0,-5.3075576E0,9.953046E0,-1.3065987E2,3.0661466E0,1.539835E1,-6.860391E0,2.2556423E1,1.0110271E1,1.0598856E1,1.6504667E1,-1.625268E1,-1.2487829E0,-1.7243632E0,9.700377E-1,-4.327185E0,4.499192E0,4.134608E0,-2.2291255E0,-2.851418E0,2.3268368E1,3.497686E0,-8.170056E-1],"categories":[],"categories_nodes":[],"categories_segments":[],"categories_sizes":[],"default_left":[0,0,0,0,0,0,0,0,0,0,0,0,0,0,0,0,0,0,0,0,0,0,0,0,0,0,0,0,0,0,0,0,0,0,0,0,0,0,0,0,0,0,0,0,0,0,0,0,0,0,0,0,0,0,0],"id":29,"left_children":[1,3,5,7,9,11,13,15,17,19,21,23,25,27,29,-1,-1,31,-1,-1,33,35,37,-1,-1,-1,39,-1,-1,-1,-1,41,-1,-1,-1,43,-1,-1,45,-1,47,-1,49,-1,51,-1,-1,-1,-1,-1,-1,-1,53,-1,-1],"loss_changes":[2.6852948E6,1.3670782E6,3.9013538E6,3.6841825E5,4.6241944E5,5.8634025E5,1.199393E6,1.92996E5,2.847385E5,3.9141E4,8.136453E5,1.3132075E5,4.749227E5,4.0778097E5,3.255575E5,0E0,0E0,2.2269392E5,0E0,0E0,1.752506E5,1.7644672E5,2.0658778E5,0E0,0E0,0E0,3.3270262E5,0E0,0E0,0E0,0E0,1.4810734E4,0E0,0E0,0E0,1.98974E5,0E0,0E0,5.673454E3,0E0,6.89706E4,0E0,2.8126773E4,0E0,2.0315756E4,0E0,0E0,0E0,0E0,0E0,0E0,0E0,1.0504136E4,0E0,0E0],"parents":[2147483647,0,0,1,1,2,2,3,3,4,4,5,5,6,6,7,7,8,8,9,9,10,10,11,11,12,12,13,13,14,14,17,17,20,20,21,21,22,22,26,26,31,31,35,35,38,38,40,40,42,42,44,44,52,52],"right_children":[2,4,6,8,10,12,14,16,18,20,22,24,26,28,30,-1,-1,32,-1,-1,34,36,38,-1,-1,-1,40,-1,-1,-1,-1,42,-1,-1,-1,44,-1,-1,46,-1,48,-1,50,-1,52,-1,-1,-1,-1,-1,-1,-1,54,-1,-1],"split_conditions":[4.037578E3,2.1E1,5E0,3E0,1.07E1,1E0,1E1,6.2E0,1.49E1,4E0,1.52E1,1.4E0,1.9E1,4.217489E3,3.2E1,-2.3828112E1,1.6137137E-1,5E0,-1.2082955E1,1.8700346E1,2.7E1,1.46E1,6E0,-1.5845894E1,1.3471628E0,-8.073548E0,2.2E1,1.5417219E1,-8.209098E0,6.371266E1,5.6485763E0,1.23E1,-7.3332615E0,-5.3075576E0,9.953046E0,2.9E1,3.0661466E0,1.539835E1,1.3E1,2.2556423E1,2E0,1.0598856E1,1.445E1,-1.625268E1,3E0,-1.7243632E0,9.700377E-1,-4.327185E0,4.499192E0,4.134608E0,-2.2291255E0,-2.851418E0,3.2E1,3.497686E0,-8.170056E-1],"split_indices":[10,0,1,9,13,27,3,14,13,6,13,14,0,10,0,0,0,1,0,0,0,15,6,0,0,0,0,0,0,0,0,13,0,0,0,0,0,0,3,0,1,0,15,0,1,0,0,0,0,0,0,0,0,0,0],"split_type":[0,0,0,0,0,0,0,0,0,0,0,0,0,0,0,0,0,0,0,0,0,0,0,0,0,0,0,0,0,0,0,0,0,0,0,0,0,0,0,0,0,0,0,0,0,0,0,0,0,0,0,0,0,0,0],"sum_hessian":[1.63E2,1.11E2,5.2E1,4.8E1,6.3E1,3.5E1,1.7E1,2.5E1,2.3E1,1.3E1,5E1,1.2E1,2.3E1,7E0,1E1,2.2E1,3E0,1.4E1,9E0,5E0,8E0,2.9E1,2.1E1,9E0,3E0,6E0,1.7E1,3E0,4E0,7E0,3E0,1.1E1,3E0,4E0,4E0,2.5E1,4E0,1.2E1,9E0,5E0,1.2E1,5E0,6E0,1.6E1,9E0,5E0,4E0,4E0,8E0,3E0,3E0,3E0,6E0,3E0,3E0],"tree_param":{"num_deleted":"0","num_feature":"33","num_nodes":"55","size_leaf_vector":"1"}},{"base_weights":[6.520467E1,-2.3914333E1,2.5663644E2,1.3228717E2,-6.369767E1,4.6243702E1,4.613902E2,2.1521606E1,-5.0536456E0,-1.071216E2,1.1795524E2,2.0129941E2,-6.849223E1,5.4890743E1,-1.07539625E1,9.865804E0,-9.371235E1,-1.8479236E2,-3.99842E1,-3.517759E1,1.879016E1,-9.408645E0,3.0586723E1,-1.4925901E1,4.823766E1,-1.055925E1,-1.6744751E-2,-2.058542E1,-3.3485886E1,5.891214E1,-1.7671782E2,-8.038357E0,4.3739715E0,-2.6878355E0,7.963077E0,-4.545998E0,1.0405395E0,1.2433714E2,-3.2018196E1,-2.0079378E1,1.374111E0,-0E0,1.5840304E1,-4.9147213E1,1.9988526E0,9.185443E-1,-9.903279E-1,1.7474039E0,-6.472919E0],"categories":[],"categories_nodes":[],"categories_segments":[],"categories_sizes":[],"default_left":[0,0,0,0,0,0,0,0,0,0,0,0,0,0,0,0,0,0,0,0,0,0,0,0,0,0,0,0,0,0,0,0,0,0,0,0,0,0,0,0,0,0,0,0,0,0,0,0,0],"id":30,"left_children":[1,3,5,7,9,11,13,-1,15,17,19,21,23,-1,-1,-1,25,27,29,31,-1,-1,-1,-1,33,-1,-1,-1,35,37,39,-1,-1,-1,-1,-1,-1,41,43,-1,-1,45,-1,47,-1,-1,-1,-1,-1],"loss_changes":[2.7298248E6,7.9839575E5,1.9729115E6,3.776782E5,8.9801975E5,7.6437075E5,2.5320095E6,0E0,2.9895925E5,3.699102E5,3.757474E5,1.0095995E6,3.7320462E5,0E0,0E0,0E0,3.1230297E4,1.37133E5,8.778621E5,1.099086E5,0E0,0E0,0E0,0E0,8.119205E4,0E0,0E0,0E0,1.8346148E4,2.7942938E5,2.3644006E5,0E0,0E0,0E0,0E0,0E0,0E0,1.4898972E5,3.2745445E4,0E0,0E0,2.7746807E3,0E0,4.326231E4,0E0,0E0,0E0,0E0,0E0],"parents":[2147483647,0,0,1,1,2,2,3,3,4,4,5,5,6,6,8,8,9,9,10,10,11,11,12,12,16,16,17,17,18,18,19,19,24,24,28,28,29,29,30,30,37,37,38,38,41,41,43,43],"right_children":[2,4,6,8,10,12,14,-1,16,18,20,22,24,-1,-1,-1,26,28,30,32,-1,-1,-1,-1,34,-1,-1,-1,36,38,40,-1,-1,-1,-1,-1,-1,42,44,-1,-1,46,-1,48,-1,-1,-1,-1,-1],"split_conditions":[5E0,5E0,4.037578E3,1E0,4.217489E3,1.07E1,4.7E1,2.1521606E1,3.5E1,2.2E1,1.3E1,6E0,1.8E1,5.4890743E1,-1.07539625E1,9.865804E0,4.1E1,2.6E1,4.037578E3,2E0,1.879016E1,-9.408645E0,3.0586723E1,-1.4925901E1,8E0,-1.055925E1,-1.6744751E-2,-2.058542E1,1.2E1,2.52E1,2.8E1,-8.038357E0,4.3739715E0,-2.6878355E0,7.963077E0,-4.545998E0,1.0405395E0,1.5E1,1.65E1,-2.0079378E1,1.374111E0,3E0,1.5840304E1,1.3E1,1.9988526E0,9.185443E-1,-9.903279E-1,1.7474039E0,-6.472919E0],"split_indices":[1,3,10,1,10,13,8,0,8,8,3,1,0,0,0,0,8,0,10,1,0,0,0,0,3,0,0,0,3,12,0,0,0,0,0,0,0,3,13,0,0,1,0,13,0,0,0,0,0],"split_type":[0,0,0,0,0,0,0,0,0,0,0,0,0,0,0,0,0,0,0,0,0,0,0,0,0,0,0,0,0,0,0,0,0,0,0,0,0,0,0,0,0,0,0,0,0,0,0,0,0],"sum_hessian":[1.47E2,1.06E2,4.1E1,1.7E1,8.9E1,2.6E1,1.5E1,6E0,1.1E1,7.5E1,1.4E1,8E0,1.8E1,1.2E1,3E0,4E0,7E0,2.7E1,4.8E1,7E0,7E0,3E0,5E0,8E0,1E1,4E0,3E0,1.8E1,9E0,3.1E1,1.7E1,4E0,3E0,4E0,6E0,6E0,3E0,1.6E1,1.5E1,1.3E1,4E0,7E0,9E0,1.2E1,3E0,4E0,3E0,3E0,9E0],"tree_param":{"num_deleted":"0","num_feature":"33","num_nodes":"49","size_leaf_vector":"1"}},{"base_weights":[4.4662045E1,2.5325424E2,-2.178349E1,2.118061E1,3.867349E2,-6.51393E1,2.2629E2,-5.6603284E0,5.9853035E1,4.73893E2,-1.6539388E0,-1.1238024E2,1.0600815E2,-1.1591665E0,3.057863E2,9.46524E0,-4.46986E0,5.080045E1,7.242713E-1,-1.7836702E2,-1.7292925E1,1.6644205E2,-1.8673698E1,2.1421907E0,3.2550716E1,5.407803E-1,-1.8976482E2,-9.204479E1,3.892158E1,-1.9736923E-1,1.8028696E1,2.1588185E0,-4.695678E0,-5.0345303E1,-2.0709586E2,-1.12183695E1,1.57501E0,6.0289066E1,-2.9008045E0,3.7621841E0,-8.60293E0,-2.4678122E2,-3.5700733E1,1.0317708E2,-1.4147213E1,-2.424013E1,-3.5403743E0,-6.0565286E0,2.8287916E0,1.5819838E-2,1.1154091E1,4.701125E0,-7.2959304E0],"categories":[],"categories_nodes":[],"categories_segments":[],"categories_sizes":[],"default_left":[0,0,0,0,0,0,0,0,0,0,0,0,0,0,0,0,0,0,0,0,0,0,0,0,0,0,0,0,0,0,0,0,0,0,0,0,0,0,0,0,0,0,0,0,0,0,0,0,0,0,0,0,0],"id":31,"left_children":[1,3,5,7,9,11,13,-1,15,17,-1,19,21,-1,23,-1,-1,-1,-1,25,27,29,31,-1,-1,-1,33,35,37,-1,-1,-1,-1,39,41,-1,-1,43,-1,-1,-1,45,47,49,51,-1,-1,-1,-1,-1,-1,-1,-1],"loss_changes":[2.2783465E6,1.1461602E6,1.5445886E6,1.1318095E5,9.4754625E5,1.0722798E6,4.462825E5,0E0,1.4633831E5,6.79089E5,0E0,5.822535E5,2.601546E5,0E0,1.3716088E5,0E0,0E0,0E0,0E0,1.29674625E5,2.4673117E5,1.0773375E5,3.637496E4,0E0,0E0,0E0,2.9336875E4,9.819989E4,7.149719E4,0E0,0E0,0E0,0E0,1.08248266E5,2.183545E5,0E0,0E0,1.1163576E5,0E0,0E0,0E0,1.368325E4,5.777142E4,3.6424188E4,1.2055044E5,0E0,0E0,0E0,0E0,0E0,0E0,0E0,0E0],"parents":[2147483647,0,0,1,1,2,2,3,3,4,4,5,5,6,6,8,8,9,9,11,11,12,12,14,14,19,19,20,20,21,21,22,22,26,26,27,27,28,28,33,33,34,34,37,37,41,41,42,42,43,43,44,44],"right_children":[2,4,6,8,10,12,14,-1,16,18,-1,20,22,-1,24,-1,-1,-1,-1,26,28,30,32,-1,-1,-1,34,36,38,-1,-1,-1,-1,40,42,-1,-1,44,-1,-1,-1,46,48,50,52,-1,-1,-1,-1,-1,-1,-1,-1],"split_conditions":[4E0,9.6394806E2,6E0,1.7E1,4.7E1,4.217489E3,1.1E1,-5.6603284E0,3E0,1.8E0,-1.6539388E0,2.2E1,1.4E1,-1.1591665E0,9.597231E2,9.46524E0,-4.46986E0,5.080045E1,7.242713E-1,2E0,3E0,6E0,1E1,2.1421907E0,3.2550716E1,5.407803E-1,1E0,4E1,2.56E1,-1.9736923E-1,1.8028696E1,2.1588185E0,-4.695678E0,5E0,1E0,-1.12183695E1,1.57501E0,9.6394806E2,-2.9008045E0,3.7621841E0,-8.60293E0,2.1E1,4E1,7E0,1.2E1,-2.424013E1,-3.5403743E0,-6.0565286E0,2.8287916E0,1.5819838E-2,1.1154091E1,4.701125E0,-7.2959304E0],"split_indices":[6,11,1,8,8,10,6,0,6,14,0,0,6,0,11,0,0,0,0,0,1,3,0,0,0,0,1,8,12,0,0,0,0,0,27,0,0,11,0,0,0,0,8,3,3,0,0,0,0,0,0,0,0],"split_type":[0,0,0,0,0,0,0,0,0,0,0,0,0,0,0,0,0,0,0,0,0,0,0,0,0,0,0,0,0,0,0,0,0,0,0,0,0,0,0,0,0,0,0,0,0,0,0,0,0,0,0,0,0],"sum_hessian":[1.51E2,3E1,1.21E2,1.5E1,1.5E1,1.09E2,1.2E1,3E0,1.2E1,1.1E1,4E0,8.8E1,2.1E1,5E0,7E0,9E0,3E0,8E0,3E0,4.7E1,4.1E1,1.2E1,9E0,3E0,4E0,3E0,4.4E1,1.5E1,2.6E1,3E0,9E0,5E0,4E0,9E0,3.5E1,1.1E1,4E0,2.1E1,5E0,3E0,6E0,2.5E1,1E1,1.1E1,1E1,2.1E1,4E0,7E0,3E0,3E0,8E0,6E0,4E0],"tree_param":{"num_deleted":"0","num_feature":"33","num_nodes":"53","size_leaf_vector":"1"}},{"base_weights":[3.22145E1,2.4046812E2,-2.8432293E1,3.611773E2,-2.1269573E1,-6.4039894E1,2.7505192E1,4.1435587E2,-8.385071E-1,9.967886E0,-1.3443665E1,-9.611244E1,9.7339714E1,8.688E1,4.466191E1,-1.447174E2,2.4800696E0,-1.2587303E1,2.0105705E2,-1.6564324E-1,1.0136952E1,-1.8249779E2,1.793331E1,-5.1288517E1,7.3588104E1,2.0997768E1,8.844307E-1,-2.1308722E2,-2.3838894E1,1.0452676E1,-7.05357E1,-6.1878557E0,9.9206537E-1,9.0963703E-1,8.992607E1,-1.566774E0,-2.2221307E2,4.873296E0,-7.485216E0,-7.2617774E0,-6.9108593E-1,1.0185623E1,1.235757E0,-2.2462267E1,-5.1696563E0],"categories":[],"categories_nodes":[],"categories_segments":[],"categories_sizes":[],"default_left":[0,0,0,0,0,0,0,0,0,0,0,0,0,0,0,0,0,0,0,0,0,0,0,0,0,0,0,0,0,0,0,0,0,0,0,0,0,0,0,0,0,0,0,0,0],"id":32,"left_children":[1,3,5,7,9,11,-1,13,-1,-1,-1,15,17,19,-1,21,23,-1,25,-1,-1,27,29,31,33,-1,-1,35,37,-1,39,-1,-1,-1,41,-1,43,-1,-1,-1,-1,-1,-1,-1,-1],"loss_changes":[2.0555358E6,1.2287688E6,1.6958555E6,5.39686E5,4.786134E5,7.3917194E5,0E0,1.0398525E5,0E0,0E0,0E0,5.2866775E5,8.79961E5,3.3388203E4,0E0,4.8352988E5,2.1024067E5,0E0,8.589881E4,0E0,0E0,2.4490962E5,2.6585928E5,3.7493297E4,1.5897164E4,0E0,0E0,5.2301E4,1.3053233E5,0E0,3.0580312E3,0E0,0E0,0E0,1.2847531E4,0E0,2.94955E4,0E0,0E0,0E0,0E0,0E0,0E0,0E0,0E0],"parents":[2147483647,0,0,1,1,2,2,3,3,4,4,5,5,7,7,11,11,12,12,13,13,15,15,16,16,18,18,21,21,22,22,23,23,24,24,27,27,28,28,30,30,34,34,36,36],"right_children":[2,4,6,8,10,12,-1,14,-1,-1,-1,16,18,20,-1,22,24,-1,26,-1,-1,28,30,32,34,-1,-1,36,38,-1,40,-1,-1,-1,42,-1,44,-1,-1,-1,-1,-1,-1,-1,-1],"split_conditions":[3E0,1E-1,2.64E1,1.67E1,1.0850863E3,1.9E1,2.7505192E1,9.6394806E2,-8.385071E-1,9.967886E0,-1.3443665E1,2.4E1,1.25E1,2.52E1,4.466191E1,1E0,9.6394806E2,-1.2587303E1,1.66E1,-1.6564324E-1,1.0136952E1,1E0,1.23E1,3.2E1,2.7E1,2.0997768E1,8.844307E-1,1.51E1,1.3E1,1.0452676E1,1.2E1,-6.1878557E0,9.9206537E-1,9.0963703E-1,2.9E1,-1.566774E0,1E0,4.873296E0,-7.485216E0,-7.2617774E0,-6.9108593E-1,1.0185623E1,1.235757E0,-2.2462267E1,-5.1696563E0],"split_indices":[6,14,15,15,11,3,0,11,0,0,0,0,13,12,0,20,11,0,13,0,0,17,13,0,0,0,0,12,13,0,3,0,0,0,0,0,21,0,0,0,0,0,0,0,0],"split_type":[0,0,0,0,0,0,0,0,0,0,0,0,0,0,0,0,0,0,0,0,0,0,0,0,0,0,0,0,0,0,0,0,0,0,0,0,0,0,0,0,0,0,0,0,0],"sum_hessian":[1.48E2,2.7E1,1.21E2,1.6E1,1.1E1,1.16E2,5E0,1.3E1,3E0,6E0,5E0,1E2,1.6E1,6E0,7E0,6.4E1,3.6E1,4E0,1.2E1,3E0,3E0,5.1E1,1.3E1,2.2E1,1.4E1,9E0,3E0,4E1,1.1E1,5E0,8E0,1.7E1,5E0,6E0,8E0,3E0,3.7E1,5E0,6E0,5E0,3E0,3E0,5E0,2.9E1,8E0],"tree_param":{"num_deleted":"0","num_feature":"33","num_nodes":"45","size_leaf_vector":"1"}},{"base_weights":[5.2901054E1,-1.5222984E1,2.927468E2,2.6045341E1,-4.539072E1,-4.6336803E0,4.8808127E2,1.8027378E1,-1.4042053E2,7.4813614E1,-9.528427E0,1.2360473E0,5.578744E2,-4.6825657E1,1.319297E2,-1.7817369E2,2.040349E1,-3.9561517E0,1.1459448E1,6.5816045E0,5.964867E1,-1.3547229E1,-3.1107628E0,-7.4378E0,1.7271858E1,-1.9965607E2,9.2195255E-1,-3.0304792E0,5.8507166E0,8.5173775E1,-3.726488E1,-7.469308E-1,-2.1321962E2,2.1543653E-1,9.305248E0,-6.8680115E1,2.2387012E1,-2.2478563E1,-4.8622185E1,-1.5116036E-1,-7.1946354E0,5.456329E0,-2.7930439E0,-1.0403562E1,5.758238E0],"categories":[],"categories_nodes":[],"categories_segments":[],"categories_sizes":[],"default_left":[0,0,0,0,0,0,0,0,0,0,0,0,0,0,0,0,0,0,0,0,0,0,0,0,0,0,0,0,0,0,0,0,0,0,0,0,0,0,0,0,0,0,0,0,0],"id":33,"left_children":[1,3,5,-1,7,9,11,13,15,17,-1,-1,19,21,23,25,27,-1,-1,-1,-1,-1,29,-1,-1,31,-1,-1,-1,33,35,-1,37,-1,-1,39,41,-1,43,-1,-1,-1,-1,-1,-1],"loss_changes":[2.633671E6,1.308413E6,2.087559E6,0E0,7.9912594E5,2.5771114E5,6.417305E5,6.911073E5,3.5407762E5,1.5778784E5,0E0,0E0,3.457535E5,2.6343994E5,5.339281E5,1.953775E5,6.2104066E4,0E0,0E0,0E0,0E0,0E0,1.8867455E5,0E0,0E0,8.5913E4,0E0,0E0,0E0,1.999357E4,9.825629E4,0E0,6.5840375E4,0E0,0E0,1.78855E4,6.046185E4,0E0,1.91197E5,0E0,0E0,0E0,0E0,0E0,0E0],"parents":[2147483647,0,0,1,1,2,2,4,4,5,5,6,6,7,7,8,8,9,9,12,12,13,13,14,14,15,15,16,16,22,22,25,25,29,29,30,30,32,32,35,35,36,36,38,38],"right_children":[2,4,6,-1,8,10,12,14,16,18,-1,-1,20,22,24,26,28,-1,-1,-1,-1,-1,30,-1,-1,32,-1,-1,-1,34,36,-1,38,-1,-1,40,42,-1,44,-1,-1,-1,-1,-1,-1],"split_conditions":[2.3E1,1.21E1,4E0,2.6045341E1,1E-1,1.0850863E3,1.42E1,1.0850863E3,1E0,9.1941376E2,-9.528427E0,1.2360473E0,9.6394806E2,4E0,9.7E0,1E0,7E-1,-3.9561517E0,1.1459448E1,6.5816045E0,5.964867E1,-1.3547229E1,1.17E1,-7.4378E0,1.7271858E1,1E0,9.2195255E-1,-3.0304792E0,5.8507166E0,1.96E1,1.2E1,-7.469308E-1,1.55E1,2.1543653E-1,9.305248E0,9.1941376E2,1.4E1,-2.2478563E1,1.4E1,-1.5116036E-1,-7.1946354E0,5.456329E0,-2.7930439E0,-1.0403562E1,5.758238E0],"split_indices":[3,12,1,0,14,11,13,11,17,11,0,0,11,3,13,20,14,0,0,0,0,0,13,0,0,1,0,0,0,12,3,0,13,0,0,11,6,0,3,0,0,0,0,0,0],"split_type":[0,0,0,0,0,0,0,0,0,0,0,0,0,0,0,0,0,0,0,0,0,0,0,0,0,0,0,0,0,0,0,0,0,0,0,0,0,0,0,0,0,0,0,0,0],"sum_hessian":[1.49E2,1.23E2,2.6E1,4E0,1.19E2,1.4E1,1.2E1,7.6E1,4.3E1,9E0,5E0,3E0,9E0,5.2E1,2.4E1,3.4E1,9E0,3E0,6E0,4E0,5E0,9E0,4.3E1,4E0,2E1,3E1,4E0,5E0,4E0,8E0,3.5E1,3E0,2.7E1,3E0,5E0,2.2E1,1.3E1,1.9E1,8E0,4E0,1.8E1,7E0,6E0,5E0,3E0],"tree_param":{"num_deleted":"0","num_feature":"33","num_nodes":"45","size_leaf_vector":"1"}},{"base_weights":[1.1580607E1,-1.408561E2,9.9225426E1,-1.8841196E2,9.993085E1,7.5115733E0,2.1340453E2,-2.0067575E1,-4.716344E1,-0E0,1.21961E1,2.2450996E2,-5.1020466E1,2.4267053E2,-4.877126E0,3.686091E0,-8.212812E0,2.4699572E1,2.4755118E0,1.1887328E1,-8.070582E1,3.0186523E2,3.31637E1,-1.1190679E1,-6.558462E-1,1.3887854E2,3.916606E1,-2.485558E0,6.3909206E0,-3.7811134E1,3.672365E1,1.8030092E2,-1.7751354E0,-4.7929635E0,4.413262E-1,5.844163E0,-8.10571E-1,1.7830486E1,2.085467E0],"categories":[],"categories_nodes":[],"categories_segments":[],"categories_sizes":[],"default_left":[0,0,0,0,0,0,0,0,0,0,0,0,0,0,0,0,0,0,0,0,0,0,0,0,0,0,0,0,0,0,0,0,0,0,0,0,0,0,0],"id":34,"left_children":[1,3,5,7,9,11,13,-1,15,-1,-1,17,19,21,-1,-1,-1,-1,-1,-1,23,25,27,-1,29,31,-1,-1,-1,33,35,37,-1,-1,-1,-1,-1,-1,-1],"loss_changes":[2.2783915E6,8.962249E5,1.1105188E6,1.256825E5,5.2902438E4,9.9309725E5,4.928955E5,0E0,1.1193119E5,0E0,0E0,7.03335E4,4.323179E5,4.5626075E5,0E0,0E0,0E0,0E0,0E0,0E0,1.9100112E5,1.0203825E5,6.2133258E4,0E0,5.430322E4,2.2028081E5,0E0,0E0,0E0,1.4108029E4,2.891636E4,4.3861875E3,0E0,0E0,0E0,0E0,0E0,0E0,0E0],"parents":[2147483647,0,0,1,1,2,2,3,3,4,4,5,5,6,6,8,8,11,11,12,12,13,13,20,20,21,21,22,22,24,24,25,25,29,29,30,30,31,31],"right_children":[2,4,6,8,10,12,14,-1,16,-1,-1,18,20,22,-1,-1,-1,-1,-1,-1,24,26,28,-1,30,32,-1,-1,-1,34,36,38,-1,-1,-1,-1,-1,-1,-1],"split_conditions":[1.8E1,3.1E1,1.4E1,2.6E1,2.3319E3,1.02E1,3.1E1,-2.0067575E1,9E0,-0E0,1.21961E1,4E0,2E0,1E0,-4.877126E0,3.686091E0,-8.212812E0,2.4699572E1,2.4755118E0,1.1887328E1,2.6E1,1E0,2.2E1,-1.1190679E1,4E1,1.0850863E3,3.916606E1,-2.485558E0,6.3909206E0,3.1E1,4.2E1,2.8E1,-1.7751354E0,-4.7929635E0,4.413262E-1,5.844163E0,-8.10571E-1,1.7830486E1,2.085467E0],"split_indices":[8,0,3,0,10,13,0,0,3,0,0,0,3,20,0,0,0,0,0,0,0,2,0,0,8,11,0,0,0,0,8,0,0,0,0,0,0,0,0],"split_type":[0,0,0,0,0,0,0,0,0,0,0,0,0,0,0,0,0,0,0,0,0,0,0,0,0,0,0,0,0,0,0,0,0,0,0,0,0,0,0],"sum_hessian":[1.51E2,5.3E1,9.8E1,4.6E1,7E0,6E1,3.8E1,3.4E1,1.2E1,4E0,3E0,7E0,5.3E1,3.5E1,3E0,4E0,8E0,3E0,4E0,3E0,5E1,2.4E1,1.1E1,3E1,2E1,1.9E1,5E0,5E0,6E0,1E1,1E1,1.4E1,5E0,6E0,4E0,4E0,6E0,1.1E1,3E0],"tree_param":{"num_deleted":"0","num_feature":"33","num_nodes":"39","size_leaf_vector":"1"}},{"base_weights":[-4.0998297E0,-1.1352725E2,5.4963104E1,2.8918644E1,-1.5090402E2,2.0913248E2,8.5369E0,-4.1425545E1,8.269751E0,1.8589642E0,-1.7676865E2,2.7222385E1,3.4565094E1,-4.2070206E1,1.05039085E2,-4.714543E0,-1.9446615E-2,-1.7682552E1,-1.2225758E0,-5.382363E0,8.169256E0,-7.837553E1,1.1347939E1,-3.0965654E1,1.5210632E2,-8.944599E1,-3.1020815E0,5.086601E0,-9.283019E0,-3.952319E0,1.9433276E2,-7.7070327E0,-1.0272796E2,2.2171214E0,-2.9855664E0,1.1104605E0,1.9913355E1,-7.9147305E0,6.978545E0,-1.079393E1,1.446997E-1],"categories":[],"categories_nodes":[],"categories_segments":[],"categories_sizes":[],"default_left":[0,0,0,0,0,0,0,0,0,0,0,0,0,0,0,0,0,0,0,0,0,0,0,0,0,0,0,0,0,0,0,0,0,0,0,0,0,0,0,0,0],"id":35,"left_children":[1,3,5,7,9,11,13,15,-1,-1,17,-1,19,21,23,-1,-1,-1,-1,-1,-1,25,-1,27,29,31,33,-1,-1,-1,35,37,39,-1,-1,-1,-1,-1,-1,-1,-1],"loss_changes":[1.02625756E6,3.3766256E5,7.236998E5,1.18638586E5,2.3568281E5,2.5234825E5,4.7965503E5,5.917215E3,0E0,0E0,7.0948375E4,0E0,1.4161575E5,4.838171E5,2.5997478E5,0E0,0E0,0E0,0E0,0E0,0E0,4.6799938E4,0E0,1.515025E5,2.9801338E5,4.8196844E4,2.1264354E4,0E0,0E0,0E0,6.4833062E4,1.7528461E5,6.53795E4,0E0,0E0,0E0,0E0,0E0,0E0,0E0,0E0],"parents":[2147483647,0,0,1,1,2,2,3,3,4,4,5,5,6,6,7,7,10,10,12,12,13,13,14,14,21,21,23,23,24,24,25,25,26,26,30,30,31,31,32,32],"right_children":[2,4,6,8,10,12,14,16,-1,-1,18,-1,20,22,24,-1,-1,-1,-1,-1,-1,26,-1,28,30,32,34,-1,-1,-1,36,38,40,-1,-1,-1,-1,-1,-1,-1,-1],"split_conditions":[2.2E1,1.4E1,3E0,2.3319E3,1E0,1.5E1,1.4E1,1E0,8.269751E0,1.8589642E0,2.9E0,2.7222385E1,2.13E1,6E-1,2E1,-4.714543E0,-1.9446615E-2,-1.7682552E1,-1.2225758E0,-5.382363E0,8.169256E0,1.2E1,1.1347939E1,3.8E1,3.9E1,9.5E0,2.47E1,5.086601E0,-9.283019E0,-3.952319E0,2E0,8.6E0,1E0,2.2171214E0,-2.9855664E0,1.1104605E0,1.9913355E1,-7.9147305E0,6.978545E0,-1.079393E1,1.446997E-1],"split_indices":[8,8,6,10,1,13,3,1,0,0,14,0,12,14,12,0,0,0,0,0,0,3,0,8,8,13,12,0,0,0,1,13,18,0,0,0,0,0,0,0,0],"split_type":[0,0,0,0,0,0,0,0,0,0,0,0,0,0,0,0,0,0,0,0,0,0,0,0,0,0,0,0,0,0,0,0,0,0,0,0,0,0,0,0,0],"sum_hessian":[1.4E2,4.6E1,9.4E1,1E1,3.6E1,1.4E1,8E1,6E0,4E0,5E0,3.1E1,5E0,9E0,5.6E1,2.4E1,3E0,3E0,2.7E1,4E0,3E0,6E0,5E1,6E0,7E0,1.7E1,4.2E1,8E0,4E0,3E0,3E0,1.4E1,8E0,3.4E1,5E0,3E0,3E0,1.1E1,4E0,4E0,2.9E1,5E0],"tree_param":{"num_deleted":"0","num_feature":"33","num_nodes":"41","size_leaf_vector":"1"}},{"base_weights":[5.0676643E1,-5.8186394E1,2.3919281E2,-1.5122765E2,1.8260593E1,7.637368E0,4.5655093E2,4.1008286E1,-1.9210098E2,1.1144989E2,-1.8654505E1,-1.1775971E1,9.755405E1,5.0247837E1,3.920923E1,-4.3764296E0,8.699384E0,5.314232E-1,-1.9290234E1,6.297361E0,1.6052227E1,-8.8228035E1,8.509614E1,-3.8227222E1,1.5868718E2,-3.67627E0,8.183957E0,-2.7302027E0,3.9937313E0,-1.0462264E1,3.4455495E0,1.1498888E2,-3.5135138E0,-1.02193985E1,6.3568006E0,1.8648275E1,-2.3449073E0,1.6556038E1,1.4143493E1,-1.6636618E0,3.660013E0],"categories":[],"categories_nodes":[],"categories_segments":[],"categories_sizes":[],"default_left":[0,0,0,0,0,0,0,0,0,0,0,0,0,0,0,0,0,0,0,0,0,0,0,0,0,0,0,0,0,0,0,0,0,0,0,0,0,0,0,0,0],"id":36,"left_children":[1,3,5,7,9,11,13,15,17,19,21,-1,23,-1,25,-1,-1,-1,-1,27,-1,29,31,33,35,-1,-1,-1,-1,-1,-1,37,-1,-1,-1,-1,-1,39,-1,-1,-1],"loss_changes":[3.3665655E6,7.9159575E5,2.963007E6,4.6484675E5,2.5240753E5,5.8630806E5,9.005075E5,1.2010989E5,1.5023825E5,1.2338967E5,4.799008E5,0E0,2.9514438E5,0E0,9.415694E4,0E0,0E0,0E0,0E0,3.5374367E4,0E0,1.6071388E5,1.4321858E5,2.0047444E5,2.1934306E5,0E0,0E0,0E0,0E0,0E0,0E0,6.712553E4,0E0,0E0,0E0,0E0,0E0,2.0786578E4,0E0,0E0,0E0],"parents":[2147483647,0,0,1,1,2,2,3,3,4,4,5,5,6,6,7,7,8,8,9,9,10,10,12,12,14,14,19,19,21,21,22,22,23,23,24,24,31,31,37,37],"right_children":[2,4,6,8,10,12,14,16,18,20,22,-1,24,-1,26,-1,-1,-1,-1,28,-1,30,32,34,36,-1,-1,-1,-1,-1,-1,38,-1,-1,-1,-1,-1,40,-1,-1,-1],"split_conditions":[4.037578E3,1.8E1,4E0,1.4E1,3.6E1,2.7645305E-1,4.4E1,2E0,4.315931E-2,1.46E1,4E1,-1.1775971E1,1E0,5.0247837E1,1.17E1,-4.3764296E0,8.699384E0,5.314232E-1,-1.9290234E1,1.45E1,1.6052227E1,4E0,1.57E1,4.217489E3,1.46E1,-3.67627E0,8.183957E0,-2.7302027E0,3.9937313E0,-1.0462264E1,3.4455495E0,1.31E1,-3.5135138E0,-1.02193985E1,6.3568006E0,1.8648275E1,-2.3449073E0,4E0,1.4143493E1,-1.6636618E0,3.660013E0],"split_indices":[10,8,1,8,8,7,8,1,7,15,8,0,27,0,13,0,0,0,0,13,0,4,15,10,15,0,0,0,0,0,0,15,0,0,0,0,0,4,0,0,0],"split_type":[0,0,0,0,0,0,0,0,0,0,0,0,0,0,0,0,0,0,0,0,0,0,0,0,0,0,0,0,0,0,0,0,0,0,0,0,0,0,0,0,0],"sum_hessian":[1.48E2,9.8E1,5E1,4E1,5.8E1,2.9E1,2.1E1,7E0,3.3E1,1.1E1,4.7E1,1E1,1.9E1,1.5E1,6E0,3E0,4E0,3E0,3E1,8E0,3E0,2.9E1,1.8E1,7E0,1.2E1,3E0,3E0,5E0,3E0,2.5E1,4E0,1.5E1,3E0,4E0,3E0,9E0,3E0,8E0,7E0,4E0,4E0],"tree_param":{"num_deleted":"0","num_feature":"33","num_nodes":"41","size_leaf_vector":"1"}},{"base_weights":[5.6913002E1,-1.2598865E1,2.8657407E2,-4.100707E1,2.5995619E1,-4.9408996E-1,4.119217E1,-8.141221E1,1.4749081E2,-1.0057357E1,9.376882E0,-1.1631479E2,1.8637424E1,2.148966E2,-7.9280834E0,-1.3714842E2,9.629516E0,4.0303017E1,-3.525269E1,1.5965098E0,2.1894495E1,-1.4984201E2,1.644563E0,-7.7769315E-1,4.858988E1,-4.0829186E0,2.8696653E-2,-1.7638614E2,-2.0749958E1,-1.2955314E0,6.1305323E0,-2.237551E0,-1.8674555E1,9.167065E0,-9.6364355E0,-1.2215415E0,1.1469873E0],"categories":[],"categories_nodes":[],"categories_segments":[],"categories_sizes":[],"default_left":[0,0,0,0,0,0,0,0,0,0,0,0,0,0,0,0,0,0,0,0,0,0,0,0,0,0,0,0,0,0,0,0,0,0,0,0,0],"id":37,"left_children":[1,3,5,7,-1,9,-1,11,13,-1,-1,15,17,19,-1,21,-1,23,25,-1,-1,27,-1,-1,29,-1,-1,31,33,35,-1,-1,-1,-1,-1,-1,-1],"loss_changes":[2.518222E6,1.1819159E6,1.6685615E6,1.0707725E6,0E0,3.5389525E5,0E0,4.0343362E5,5.7776125E5,0E0,0E0,5.1549062E5,5.6252406E4,5.766725E4,0E0,1.8213175E5,0E0,1.6308633E4,5.127699E3,0E0,0E0,2.2013212E5,0E0,0E0,2.5248984E4,0E0,0E0,1.8794025E5,3.3408584E5,4.264915E3,0E0,0E0,0E0,0E0,0E0,0E0,0E0],"parents":[2147483647,0,0,1,1,2,2,3,3,5,5,7,7,8,8,11,11,12,12,13,13,15,15,17,17,18,18,21,21,24,24,27,27,28,28,29,29],"right_children":[2,4,6,8,-1,10,-1,12,14,-1,-1,16,18,20,-1,22,-1,24,26,-1,-1,28,-1,-1,30,-1,-1,32,34,36,-1,-1,-1,-1,-1,-1,-1],"split_conditions":[7.514773E-1,3.18E1,1E0,4.217489E3,2.5995619E1,2.24E1,4.119217E1,2.5E1,6E0,-1.0057357E1,9.376882E0,1E0,1E0,8E0,-7.9280834E0,2.46E1,9.629516E0,2.6E1,3E0,1.5965098E0,2.1894495E1,1E0,1.644563E0,-7.7769315E-1,3E0,-4.0829186E0,2.8696653E-2,5E0,1.445E1,4E0,6.1305323E0,-2.237551E0,-1.8674555E1,9.167065E0,-9.6364355E0,-1.2215415E0,1.1469873E0],"split_indices":[7,15,27,10,0,12,0,0,1,0,0,16,17,3,0,15,0,0,1,0,0,17,0,0,9,0,0,3,15,1,0,0,0,0,0,0,0],"split_type":[0,0,0,0,0,0,0,0,0,0,0,0,0,0,0,0,0,0,0,0,0,0,0,0,0,0,0,0,0,0,0,0,0,0,0,0,0],"sum_hessian":[1.46E2,1.19E2,2.7E1,1.16E2,3E0,1.3E1,1.4E1,1E2,1.6E1,6E0,7E0,7.3E1,2.7E1,1.3E1,3E0,7E1,3E0,2.1E1,6E0,3E0,1E1,6.5E1,5E0,3E0,1.8E1,3E0,3E0,5.1E1,1.4E1,7E0,1.1E1,1E1,4.1E1,5E0,9E0,4E0,3E0],"tree_param":{"num_deleted":"0","num_feature":"33","num_nodes":"37","size_leaf_vector":"1"}},{"base_weights":[2.333751E1,-3.1620802E1,2.2261423E2,1.158788E0,-1.4578064E2,1.4052798E0,4.0370663E1,-3.4075893E1,6.465974E1,-1.7122005E2,-1.5965674E1,-1.1025869E1,1.0908085E2,-8.022782E1,4.5843437E1,-1.1775016E1,1.13621506E2,-1.8303219E1,4.33556E-1,2.1812584E0,-4.0249662E0,1.3456603E1,1.842398E1,2.813723E0,-9.233872E1,7.167189E1,-2.8927228E0,1.739022E2,-8.060933E0,-1.8101648E0,3.7709432E0,-1.07051834E2,-5.4742937E0,9.574448E1,-1.46692E0,2.514333E2,-6.987764E0,6.691592E1,-1.0995783E1,-1.070897E1,-5.5581456E-1,3.9571103E-1,-9.640484E-1,9.76071E0,5.503227E-1,2.6638388E1,1.087371E0,-3.8135996E0,3.5036027E0,-1.8837554E0,9.8857975E0,-2.6634593E0,2.632046E0],"categories":[],"categories_nodes":[],"categories_segments":[],"categories_sizes":[],"default_left":[0,0,0,0,0,0,0,0,0,0,0,0,0,0,0,0,0,0,0,0,0,0,0,0,0,0,0,0,0,0,0,0,0,0,0,0,0,0,0,0,0,0,0,0,0,0,0,0,0,0,0,0,0],"id":38,"left_children":[1,3,5,7,9,11,-1,13,15,17,19,-1,21,23,25,-1,27,-1,-1,-1,-1,-1,29,-1,31,33,-1,35,37,-1,-1,39,41,43,-1,45,47,49,-1,-1,-1,-1,-1,-1,-1,-1,-1,-1,-1,51,-1,-1,-1],"loss_changes":[1.858769E6,5.128707E5,1.7221381E6,2.7963506E5,7.443069E4,4.819196E5,0E0,3.322919E5,5.5680894E5,1.2432E5,2.6777055E4,0E0,3.860139E4,1.0003919E5,9.228919E4,0E0,3.1113756E5,0E0,0E0,0E0,0E0,0E0,2.1707705E4,0E0,6.0075125E4,7.6915016E4,0E0,4.036163E5,2.6341694E5,0E0,0E0,3.1502812E4,1.284177E3,1.5347469E4,0E0,1.3836538E5,4.1879375E4,5.5864305E4,0E0,0E0,0E0,0E0,0E0,0E0,0E0,0E0,0E0,0E0,0E0,2.1336873E4,0E0,0E0,0E0],"parents":[2147483647,0,0,1,1,2,2,3,3,4,4,5,5,7,7,8,8,9,9,10,10,12,12,13,13,14,14,16,16,22,22,24,24,25,25,27,27,28,28,31,31,32,32,33,33,35,35,36,36,37,37,49,49],"right_children":[2,4,6,8,10,12,-1,14,16,18,20,-1,22,24,26,-1,28,-1,-1,-1,-1,-1,30,-1,32,34,-1,36,38,-1,-1,40,42,44,-1,46,48,50,-1,-1,-1,-1,-1,-1,-1,-1,-1,-1,-1,52,-1,-1,-1],"split_conditions":[1.3468495E3,1E0,4E0,9.6394806E2,1E0,1.5E1,4.0370663E1,1.3E1,8.3E0,1.74E1,4E0,-1.1025869E1,2.2E1,2E0,1.67E1,-1.1775016E1,4.3E1,-1.8303219E1,4.33556E-1,2.1812584E0,-4.0249662E0,1.3456603E1,2E0,2.813723E0,2.9E1,2.8E1,-2.8927228E0,1E1,5E0,-1.8101648E0,3.7709432E0,2.02E1,1.8E1,3.4E1,-1.46692E0,1.22E1,1.3E1,4.6E1,-1.0995783E1,-1.070897E1,-5.5581456E-1,3.9571103E-1,-9.640484E-1,9.76071E0,5.503227E-1,2.6638388E1,1.087371E0,-3.8135996E0,3.5036027E0,2E0,9.8857975E0,-2.6634593E0,2.632046E0],"split_indices":[11,32,1,11,17,0,0,3,15,15,1,0,0,3,15,0,8,0,0,0,0,0,1,0,0,3,0,6,1,0,0,15,8,0,0,15,15,8,0,0,0,0,0,0,0,0,0,0,0,1,0,0,0],"split_type":[0,0,0,0,0,0,0,0,0,0,0,0,0,0,0,0,0,0,0,0,0,0,0,0,0,0,0,0,0,0,0,0,0,0,0,0,0,0,0,0,0,0,0,0,0,0,0,0,0,0,0,0,0],"sum_hessian":[1.54E2,1.27E2,2.7E1,1.06E2,2.1E1,1.8E1,9E0,7.1E1,3.5E1,1.5E1,6E0,8E0,1E1,4.5E1,2.6E1,4E0,3.1E1,1.2E1,3E0,3E0,3E0,3E0,7E0,3E0,4.2E1,2E1,6E0,1.8E1,1.3E1,3E0,4E0,3.4E1,8E0,1.5E1,5E0,1E1,8E0,1E1,3E0,3E1,4E0,3E0,5E0,1.2E1,3E0,7E0,3E0,5E0,3E0,7E0,3E0,4E0,3E0],"tree_param":{"num_deleted":"0","num_feature":"33","num_nodes":"53","size_leaf_vector":"1"}},{"base_weights":[6.938289E1,-6.155941E1,2.0202373E2,1.01924925E1,-8.7219086E1,8.114894E1,4.078777E1,-1.4650592E2,3.7870796E1,-9.538392E0,1.8605144E2,3.44537E0,-1.7334834E2,-1.0382279E1,6.861603E1,-5.90177E1,6.2448856E1,2.730139E2,-1.2815806E0,-1.8059565E1,3.992785E-1,-3.8595564E0,2.3310115E0,-9.0252E-2,7.5063853E0,-8.041326E0,-1.0042433E1,1.1346328E1,-5.495953E0,1.7687075E0,2.8479778E1,1.1016301E1,-1.2004436E1,-6.058465E0,3.8130417E1,-5.74043E-1,4.761382E0],"categories":[],"categories_nodes":[],"categories_segments":[],"categories_sizes":[],"default_left":[0,0,0,0,0,0,0,0,0,0,0,0,0,0,0,0,0,0,0,0,0,0,0,0,0,0,0,0,0,0,0,0,0,0,0,0,0],"id":39,"left_children":[1,3,5,-1,7,9,-1,11,13,15,17,-1,19,21,23,25,27,29,31,-1,-1,-1,-1,-1,-1,-1,33,-1,-1,-1,-1,-1,-1,-1,35,-1,-1],"loss_changes":[2.612251E6,4.423157E5,1.7814215E6,0E0,6.060669E5,5.933116E5,0E0,3.2111438E5,5.3718883E4,1.83187E5,4.689588E5,0E0,1.9333475E5,3.2990965E4,1.8831992E4,3.1880266E4,2.2785362E5,1.16271E5,4.3455416E5,0E0,0E0,0E0,0E0,0E0,0E0,0E0,8.147055E4,0E0,0E0,0E0,0E0,0E0,0E0,0E0,1.3518766E4,0E0,0E0],"parents":[2147483647,0,0,1,1,2,2,4,4,5,5,7,7,8,8,9,9,10,10,12,12,13,13,14,14,15,15,16,16,17,17,18,18,26,26,34,34],"right_children":[2,4,6,-1,8,10,-1,12,14,16,18,-1,20,22,24,26,28,30,32,-1,-1,-1,-1,-1,-1,-1,34,-1,-1,-1,-1,-1,-1,-1,36,-1,-1],"split_conditions":[3.6627E3,2E0,5E0,1.01924925E1,2.6E1,1.9E1,4.078777E1,6E0,4E0,3E0,1.52E1,3.44537E0,1.68E1,3E0,2.3319E3,1.3E1,1.0850863E3,4.037578E3,1.0850863E3,-1.8059565E1,3.992785E-1,-3.8595564E0,2.3310115E0,-9.0252E-2,7.5063853E0,-8.041326E0,4.037578E3,1.1346328E1,-5.495953E0,1.7687075E0,2.8479778E1,1.1016301E1,-1.2004436E1,-6.058465E0,4E0,-5.74043E-1,4.761382E0],"split_indices":[10,3,1,0,0,3,0,0,1,1,13,0,13,9,10,0,11,10,11,0,0,0,0,0,0,0,10,0,0,0,0,0,0,0,3,0,0],"split_type":[0,0,0,0,0,0,0,0,0,0,0,0,0,0,0,0,0,0,0,0,0,0,0,0,0,0,0,0,0,0,0,0,0,0,0,0,0],"sum_hessian":[1.34E2,7E1,6.4E1,5E0,6.5E1,5.1E1,1.3E1,4.3E1,2.2E1,3.2E1,1.9E1,5E0,3.8E1,1.1E1,1.1E1,2E1,1.2E1,1E1,9E0,3.3E1,5E0,5E0,6E0,3E0,8E0,8E0,1.2E1,8E0,4E0,3E0,7E0,5E0,4E0,4E0,8E0,3E0,5E0],"tree_param":{"num_deleted":"0","num_feature":"33","num_nodes":"37","size_leaf_vector":"1"}},{"base_weights":[1.8850939E1,-2.4041996E1,3.612077E1,-1.0733912E2,3.3472084E1,3.403629E0,-1.2053286E2,-1.0268923E1,2.063889E2,-1.565605E2,-3.329557E1,-5.7630386E1,7.4146805E1,5.35527E-1,2.5103966E1,-1.7955873E2,-1.0668294E1,-1.0480735E1,7.238051E1,5.5771297E1,-8.559759E1,1.4500488E2,-1.0942606E1,-1.7729391E1,-1.2295854E0,-2.153487E0,9.169205E-1,9.311829E0,-1.2408706E-1,1.0092362E1,-4.472689E0,-1.3719965E1,-2.7651642E1,1.709466E1,-4.2079406E0,-7.142846E0,1.6601964E0,-5.6877933E0,5.191658E0,-2.1689234E0,2.8851283E0],"categories":[],"categories_nodes":[],"categories_segments":[],"categories_sizes":[],"default_left":[0,0,0,0,0,0,0,0,0,0,0,0,0,0,0,0,0,0,0,0,0,0,0,0,0,0,0,0,0,0,0,0,0,0,0,0,0,0,0,0,0],"id":40,"left_children":[1,3,-1,5,7,-1,9,11,13,15,17,19,21,-1,-1,23,25,-1,27,29,31,33,-1,-1,-1,-1,-1,-1,-1,-1,-1,-1,35,-1,37,-1,39,-1,-1,-1,-1],"loss_changes":[2.5540128E6,7.41327E5,0E0,1.61463E5,7.357431E5,0E0,1.37024E5,3.7881247E5,2.3940631E5,1.1404919E5,3.282458E5,2.3451119E5,6.350036E5,0E0,0E0,4.283725E4,6.265514E3,0E0,4.0161336E4,1.4796125E5,1.4787156E5,1.8326375E5,0E0,0E0,0E0,0E0,0E0,0E0,0E0,0E0,0E0,0E0,5.737714E4,0E0,8.671008E4,0E0,3.1874582E4,0E0,0E0,0E0,0E0],"parents":[2147483647,0,0,1,1,3,3,4,4,6,6,7,7,8,8,9,9,10,10,11,11,12,12,15,15,16,16,18,18,19,19,20,20,21,21,32,32,34,34,36,36],"right_children":[2,4,-1,6,8,-1,10,12,14,16,18,20,22,-1,-1,24,26,-1,28,30,32,34,-1,-1,-1,-1,-1,-1,-1,-1,-1,-1,36,-1,38,-1,40,-1,-1,-1,-1],"split_conditions":[2.9E1,3.3E1,3.612077E1,2E0,6E0,3.403629E0,4E0,1.5E1,4.037578E3,1.55E1,1.8E1,1E0,1.0850863E3,5.35527E-1,2.5103966E1,3E1,1.4E1,-1.0480735E1,2.03E1,9E0,6E0,2.56E1,-1.0942606E1,-1.7729391E1,-1.2295854E0,-2.153487E0,9.169205E-1,9.311829E0,-1.2408706E-1,1.0092362E1,-4.472689E0,-1.3719965E1,1E0,1.709466E1,4.2E1,-7.142846E0,2.43E1,-5.6877933E0,5.191658E0,-2.1689234E0,2.8851283E0],"split_indices":[3,8,0,3,1,0,1,3,10,15,0,1,11,0,0,0,0,0,12,3,3,12,0,0,0,0,0,0,0,0,0,0,27,0,8,0,12,0,0,0,0],"split_type":[0,0,0,0,0,0,0,0,0,0,0,0,0,0,0,0,0,0,0,0,0,0,0,0,0,0,0,0,0,0,0,0,0,0,0,0,0,0,0,0,0],"sum_hessian":[1.45E2,1.38E2,7E0,5.3E1,8.5E1,3E0,5E1,7.5E1,1E1,3E1,2E1,5E1,2.5E1,5E0,5E0,2.4E1,6E0,1.1E1,9E0,8E0,4.2E1,2E1,5E0,2.1E1,3E0,3E0,3E0,4E0,5E0,5E0,3E0,1.3E1,2.9E1,1.4E1,6E0,5E0,2.4E1,3E0,3E0,1.4E1,1E1],"tree_param":{"num_deleted":"0","num_feature":"33","num_nodes":"41","size_leaf_vector":"1"}},{"base_weights":[4.8358265E1,-4.35113E0,2.4760765E2,1.8294119E1,-2.6574423E1,2.8972416E1,4.2120415E1,-5.4335026E1,8.580596E1,-9.074946E0,1.11760086E2,7.861981E1,-7.3530426E1,-6.406977E1,2.4069569E1,1.1295549E1,1.1180217E0,1.2828533E1,-1.8022022E1,-3.2902855E1,-1.4316704E2,6.5044266E1,-1.4460214E1,-5.215765E0,3.1363769E0,-8.349734E1,2.6221285E1,-1.774656E2,7.610413E0,-2.4135973E0,9.596988E0,-8.970714E0,-1.5296311E1,-2.7178434E1,9.038964E1,-2.8858943E0,-1.811044E1,-1.9533304E0,2.8394282E0,-4.330037E0,3.2598896E0,-6.2926254E0,5.7594376E0,1.1340214E1,-5.0351804E-1],"categories":[],"categories_nodes":[],"categories_segments":[],"categories_sizes":[],"default_left":[0,0,0,0,0,0,0,0,0,0,0,0,0,0,0,0,0,0,0,0,0,0,0,0,0,0,0,0,0,0,0,0,0,0,0,0,0,0,0,0,0,0,0,0,0],"id":41,"left_children":[1,3,5,-1,7,9,-1,11,13,-1,15,17,19,21,-1,-1,-1,-1,23,25,27,29,-1,-1,-1,31,33,35,37,-1,-1,-1,39,41,43,-1,-1,-1,-1,-1,-1,-1,-1,-1,-1],"loss_changes":[1.6863906E6,6.587464E5,1.3969755E6,0E0,4.5174853E5,3.8406003E5,0E0,3.3733547E5,9.319956E5,0E0,6.860203E3,1.317788E5,2.4198462E5,3.7779694E5,0E0,0E0,0E0,0E0,4.927997E4,2.500048E5,1.9189112E5,8.4382016E4,0E0,0E0,0E0,2.5669625E4,1.693805E5,1.7753188E4,1.6521375E4,0E0,0E0,0E0,4.53214E4,1.5208344E5,7.310795E4,0E0,0E0,0E0,0E0,0E0,0E0,0E0,0E0,0E0,0E0],"parents":[2147483647,0,0,1,1,2,2,4,4,5,5,7,7,8,8,10,10,11,11,12,12,13,13,18,18,19,19,20,20,21,21,25,25,26,26,27,27,28,28,32,32,33,33,34,34],"right_children":[2,4,6,-1,8,10,-1,12,14,-1,16,18,20,22,-1,-1,-1,-1,24,26,28,30,-1,-1,-1,32,34,36,38,-1,-1,-1,40,42,44,-1,-1,-1,-1,-1,-1,-1,-1,-1,-1],"split_conditions":[2.2E1,2E0,1E0,1.8294119E1,1.3468495E3,1.8E1,4.2120415E1,1.4E1,1E0,-9.074946E0,2.8E1,9E0,1E0,1.2E1,2.4069569E1,1.1295549E1,1.1180217E0,1.2828533E1,1E1,3.8E1,1E0,8E0,-1.4460214E1,-5.215765E0,3.1363769E0,1.7E1,1.2E1,1.6E1,1.1E1,-2.4135973E0,9.596988E0,-8.970714E0,3.3E1,2E1,1E0,-2.8858943E0,-1.811044E1,-1.9533304E0,2.8394282E0,-4.330037E0,3.2598896E0,-6.2926254E0,5.7594376E0,1.1340214E1,-5.0351804E-1],"split_indices":[3,3,2,0,11,8,0,8,2,0,3,6,2,6,0,0,0,0,3,8,20,6,0,0,0,6,3,8,6,0,0,0,8,6,32,0,0,0,0,0,0,0,0,0,0],"split_type":[0,0,0,0,0,0,0,0,0,0,0,0,0,0,0,0,0,0,0,0,0,0,0,0,0,0,0,0,0,0,0,0,0,0,0,0,0,0,0,0,0,0,0,0,0],"sum_hessian":[1.5E2,1.26E2,2.4E1,5E0,1.21E2,1.7E1,7E0,1.01E2,2E1,6E0,1.1E1,9E0,9.2E1,1.4E1,6E0,8E0,3E0,3E0,6E0,6.7E1,2.5E1,7E0,7E0,3E0,3E0,3.4E1,3.3E1,1.9E1,6E0,3E0,4E0,2.5E1,9E0,2.1E1,1.2E1,5E0,1.4E1,3E0,3E0,6E0,3E0,1.6E1,5E0,7E0,5E0],"tree_param":{"num_deleted":"0","num_feature":"33","num_nodes":"45","size_leaf_vector":"1"}},{"base_weights":[3.2167038E1,1.2146928E2,-2.5279766E1,2.797572E2,-8.8928795E0,-6.2665928E1,2.2370005E1,-3.0480047E1,3.7529547E2,-4.9543743E1,1.19390135E1,3.760269E1,-8.095008E1,5.3588715E0,-8.866094E0,2.8287916E0,3.8217094E1,-8.720317E1,6.924429E0,